<?xml version="1.0" encoding="UTF-8" standalone="yes"?>
<PMML xmlns="http://www.dmg.org/PMML-4_4" xmlns:data="http://jpmml.org/jpmml-model/InlineTable" version="4.4">
	<Header>
		<Application name="JPMML-SkLearn library" version="1.7.4"/>
		<Timestamp>2023-03-01T12:46:00Z</Timestamp>
	</Header>
	<MiningBuildTask>
		<Extension name="repr">PMMLPipeline(steps=[('Standard Scaler', StandardScaler()),
       ('SVM', SVC(gamma='auto'))])</Extension>
	</MiningBuildTask>
	<DataDictionary>
		<DataField name="isFraud" optype="categorical" dataType="integer">
			<Value value="0"/>
			<Value value="1"/>
		</DataField>
		<DataField name="step" optype="continuous" dataType="double"/>
		<DataField name="amount" optype="continuous" dataType="double"/>
		<DataField name="oldbalanceOrg" optype="continuous" dataType="double"/>
		<DataField name="newbalanceOrig" optype="continuous" dataType="double"/>
		<DataField name="oldbalanceDest" optype="continuous" dataType="double"/>
		<DataField name="newbalanceDest" optype="continuous" dataType="double"/>
		<DataField name="CASH_IN" optype="continuous" dataType="double"/>
		<DataField name="CASH_OUT" optype="continuous" dataType="double"/>
		<DataField name="DEBIT" optype="continuous" dataType="double"/>
		<DataField name="PAYMENT" optype="continuous" dataType="double"/>
		<DataField name="TRANSFER" optype="continuous" dataType="double"/>
		<DataField name="isFlaggedFraud" optype="continuous" dataType="double"/>
	</DataDictionary>
	<SupportVectorMachineModel functionName="classification" algorithmName="sklearn.svm._classes.SVC" classificationMethod="OneAgainstOne">
		<MiningSchema>
			<MiningField name="isFraud" usageType="target"/>
			<MiningField name="step"/>
			<MiningField name="amount"/>
			<MiningField name="oldbalanceOrg"/>
			<MiningField name="newbalanceOrig"/>
			<MiningField name="oldbalanceDest"/>
			<MiningField name="newbalanceDest"/>
			<MiningField name="CASH_IN"/>
			<MiningField name="CASH_OUT"/>
			<MiningField name="DEBIT"/>
			<MiningField name="PAYMENT"/>
			<MiningField name="TRANSFER"/>
			<MiningField name="isFlaggedFraud"/>
		</MiningSchema>
		<LocalTransformations>
			<DerivedField name="standardScaler(step)" optype="continuous" dataType="double">
				<Apply function="/">
					<Apply function="-">
						<FieldRef field="step"/>
						<Constant dataType="double">306.84379827351205</Constant>
					</Apply>
					<Constant dataType="double">194.10192699594103</Constant>
				</Apply>
			</DerivedField>
			<DerivedField name="standardScaler(amount)" optype="continuous" dataType="double">
				<Apply function="/">
					<Apply function="-">
						<FieldRef field="amount"/>
						<Constant dataType="double">814361.6950031773</Constant>
					</Apply>
					<Constant dataType="double">1841939.3528030077</Constant>
				</Apply>
			</DerivedField>
			<DerivedField name="standardScaler(oldbalanceOrg)" optype="continuous" dataType="double">
				<Apply function="/">
					<Apply function="-">
						<FieldRef field="oldbalanceOrg"/>
						<Constant dataType="double">1225333.4408805126</Constant>
					</Apply>
					<Constant dataType="double">3153524.1848639604</Constant>
				</Apply>
			</DerivedField>
			<DerivedField name="standardScaler(newbalanceOrig)" optype="continuous" dataType="double">
				<Apply function="/">
					<Apply function="-">
						<FieldRef field="newbalanceOrig"/>
						<Constant dataType="double">514247.9544488875</Constant>
					</Apply>
					<Constant dataType="double">2422858.7092872607</Constant>
				</Apply>
			</DerivedField>
			<DerivedField name="standardScaler(oldbalanceDest)" optype="continuous" dataType="double">
				<Apply function="/">
					<Apply function="-">
						<FieldRef field="oldbalanceDest"/>
						<Constant dataType="double">861942.2700935942</Constant>
					</Apply>
					<Constant dataType="double">4508502.95112039</Constant>
				</Apply>
			</DerivedField>
			<DerivedField name="standardScaler(newbalanceDest)" optype="continuous" dataType="double">
				<Apply function="/">
					<Apply function="-">
						<FieldRef field="newbalanceDest"/>
						<Constant dataType="double">1278252.616074513</Constant>
					</Apply>
					<Constant dataType="double">4785691.303468086</Constant>
				</Apply>
			</DerivedField>
			<DerivedField name="standardScaler(CASH_IN)" optype="continuous" dataType="double">
				<Apply function="/">
					<Apply function="-">
						<FieldRef field="CASH_IN"/>
						<Constant dataType="double">0.11194911403907315</Constant>
					</Apply>
					<Constant dataType="double">0.31530383744084395</Constant>
				</Apply>
			</DerivedField>
			<DerivedField name="standardScaler(CASH_OUT)" optype="continuous" dataType="double">
				<Apply function="/">
					<Apply function="-">
						<FieldRef field="CASH_OUT"/>
						<Constant dataType="double">0.4282598818718764</Constant>
					</Apply>
					<Constant dataType="double">0.4948265912933065</Constant>
				</Apply>
			</DerivedField>
			<DerivedField name="standardScaler(DEBIT)" optype="continuous" dataType="double">
				<Apply function="/">
					<Apply function="-">
						<FieldRef field="DEBIT"/>
						<Constant dataType="double">0.0033621081326669694</Constant>
					</Apply>
					<Constant dataType="double">0.0578861327225397</Constant>
				</Apply>
			</DerivedField>
			<DerivedField name="standardScaler(PAYMENT)" optype="continuous" dataType="double">
				<Apply function="/">
					<Apply function="-">
						<FieldRef field="PAYMENT"/>
						<Constant dataType="double">0.16174466151749206</Constant>
					</Apply>
					<Constant dataType="double">0.3682164118940081</Constant>
				</Apply>
			</DerivedField>
			<DerivedField name="standardScaler(TRANSFER)" optype="continuous" dataType="double">
				<Apply function="/">
					<Apply function="-">
						<FieldRef field="TRANSFER"/>
						<Constant dataType="double">0.2946842344388914</Constant>
					</Apply>
					<Constant dataType="double">0.4559006870054444</Constant>
				</Apply>
			</DerivedField>
			<DerivedField name="standardScaler(isFlaggedFraud)" optype="continuous" dataType="double">
				<Apply function="/">
					<Apply function="-">
						<FieldRef field="isFlaggedFraud"/>
						<Constant dataType="double">7.269422989550204E-4</Constant>
					</Apply>
					<Constant dataType="double">0.026952065854944196</Constant>
				</Apply>
			</DerivedField>
		</LocalTransformations>
		<RadialBasisKernelType gamma="0.08333333333333333"/>
		<VectorDictionary>
			<VectorFields>
				<FieldRef field="standardScaler(step)"/>
				<FieldRef field="standardScaler(amount)"/>
				<FieldRef field="standardScaler(oldbalanceOrg)"/>
				<FieldRef field="standardScaler(newbalanceOrig)"/>
				<FieldRef field="standardScaler(oldbalanceDest)"/>
				<FieldRef field="standardScaler(newbalanceDest)"/>
				<FieldRef field="standardScaler(CASH_IN)"/>
				<FieldRef field="standardScaler(CASH_OUT)"/>
				<FieldRef field="standardScaler(DEBIT)"/>
				<FieldRef field="standardScaler(PAYMENT)"/>
				<FieldRef field="standardScaler(TRANSFER)"/>
				<FieldRef field="standardScaler(isFlaggedFraud)"/>
			</VectorFields>
			<VectorInstance id="1">
				<Array type="real">0.10899532041704232 -0.42921348295213335 -0.3885600265131222 -0.21224842888183326 1.998463589264669 1.800689720141485 -0.35505154313282533 1.1554353144882366 -0.05808140869907918 -0.4392652154897718 -0.6463781319885843 -0.026971672704697965</Array>
			</VectorInstance>
			<VectorInstance id="7">
				<Array type="real">0.45932672130736935 -0.4391043406355179 -0.3663312450322458 -0.18561011532578353 -0.1696271996236679 -0.24563158622927508 -0.35505154313282533 1.1554353144882366 -0.05808140869907918 -0.4392652154897718 -0.6463781319885843 -0.026971672704697965</Array>
			</VectorInstance>
			<VectorInstance id="10">
				<Array type="real">0.44387092420926666 -0.2800751524300322 -0.38463077172589927 -0.21224842888183326 0.0613596448545429 0.03318434764281616 -0.35505154313282533 -0.865474672152425 -0.05808140869907918 -0.4392652154897718 1.547082041472523 -0.026971672704697965</Array>
			</VectorInstance>
			<VectorInstance id="11">
				<Array type="real">-1.0862529885028969 -0.33112490597208405 -0.32647286671274595 -0.21224842888183326 -0.13972579521924167 -0.17590244599865187 -0.35505154313282533 -0.865474672152425 -0.05808140869907918 -0.4392652154897718 1.547082041472523 -0.026971672704697965</Array>
			</VectorInstance>
			<VectorInstance id="15">
				<Array type="real">-1.4056727951970185 -0.19456624044532553 -0.3799144609801672 -0.21224842888183326 -0.16234407031090123 -0.14465132248978319 -0.35505154313282533 1.1554353144882366 -0.05808140869907918 -0.4392652154897718 -0.6463781319885843 -0.026971672704697965</Array>
			</VectorInstance>
			<VectorInstance id="26">
				<Array type="real">-1.4829517806875319 -0.4388689691509246 -0.38569656345698283 -0.21099440198032493 -0.024969454675774064 -0.10926185851051101 -0.35505154313282533 1.1554353144882366 -0.05808140869907918 -0.4392652154897718 -0.6463781319885843 -0.026971672704697965</Array>
			</VectorInstance>
			<VectorInstance id="28">
				<Array type="real">-0.6122752108277485 -0.439199408912187 -0.33537667031595547 -0.14524824460457772 0.0206009757370403 -0.06645806131373971 -0.35505154313282533 1.1554353144882366 -0.05808140869907918 -0.4392652154897718 -0.6463781319885843 -0.026971672704697965</Array>
			</VectorInstance>
			<VectorInstance id="33">
				<Array type="real">-1.4777998483214976 -0.35900222447437874 -0.3727183848857075 -0.21224842888183326 -0.19118148073506228 -0.2351073595697952 -0.35505154313282533 1.1554353144882366 -0.05808140869907918 -0.4392652154897718 -0.6463781319885843 -0.026971672704697965</Array>
			</VectorInstance>
			<VectorInstance id="54">
				<Array type="real">-1.5190153072497714 -0.4321024542919889 -0.3885600265131222 -0.21224842888183326 -0.12728341232448062 -0.2030454420180286 -0.35505154313282533 1.1554353144882366 -0.05808140869907918 -0.4392652154897718 -0.6463781319885843 -0.026971672704697965</Array>
			</VectorInstance>
			<VectorInstance id="56">
				<Array type="real">-0.648338737389988 -0.10562243795221424 -0.3824807961422199 -0.21224842888183326 -0.18839383921940647 -0.13495917624408055 -0.35505154313282533 1.1554353144882366 -0.05808140869907918 -0.4392652154897718 -0.6463781319885843 -0.026971672704697965</Array>
			</VectorInstance>
			<VectorInstance id="62">
				<Array type="real">0.335680344522548 -0.2523687081747756 -0.3598128234838514 -0.21224842888183326 -0.19118148073506228 -0.19406575083551172 -0.35505154313282533 -0.865474672152425 -0.05808140869907918 -0.4392652154897718 1.547082041472523 -0.026971672704697965</Array>
			</VectorInstance>
			<VectorInstance id="70">
				<Array type="real">-1.4932556454196002 -0.1534647243260287 -0.38796577072494887 -0.21224842888183326 0.24914075072907985 0.15629685796562684 -0.35505154313282533 1.1554353144882366 -0.05808140869907918 -0.4392652154897718 -0.6463781319885843 -0.026971672704697965</Array>
			</VectorInstance>
			<VectorInstance id="72">
				<Array type="real">-1.5035595101516688 -0.3100868028765451 -0.37470188005914623 -0.21224842888183326 -0.18642293666120988 -0.21179763419758824 -0.35505154313282533 1.1554353144882366 -0.05808140869907918 -0.4392652154897718 -0.6463781319885843 -0.026971672704697965</Array>
			</VectorInstance>
			<VectorInstance id="73">
				<Array type="real">0.24809749429996628 -0.32218360181082734 -0.3428241128035459 -0.21224842888183326 0.3270827425187657 0.2673098039145219 -0.35505154313282533 1.1554353144882366 -0.05808140869907918 -0.4392652154897718 -0.6463781319885843 -0.026971672704697965</Array>
			</VectorInstance>
			<VectorInstance id="92">
				<Array type="real">-1.3644573362687447 -0.39846037486863495 -0.3851406774395507 -0.21224842888183326 -0.19118148073506228 -0.25029419787408164 -0.35505154313282533 1.1554353144882366 -0.05808140869907918 -0.4392652154897718 -0.6463781319885843 -0.026971672704697965</Array>
			</VectorInstance>
			<VectorInstance id="93">
				<Array type="real">0.011108605462392136 -0.3917686887491961 -0.3863320429657872 -0.21224842888183326 -0.17609268280423368 -0.23350381903335507 -0.35505154313282533 -0.865474672152425 -0.05808140869907918 -0.4392652154897718 1.547082041472523 -0.026971672704697965</Array>
			</VectorInstance>
			<VectorInstance id="97">
				<Array type="real">-0.26194380993742156 -0.27939185088805435 -0.2605051975892652 -0.1692887838967491 -0.19118148073506228 -0.20446654496193797 -0.35505154313282533 1.1554353144882366 -0.05808140869907918 -0.4392652154897718 -0.6463781319885843 -0.026971672704697965</Array>
			</VectorInstance>
			<VectorInstance id="99">
				<Array type="real">0.3511361416206507 -0.385450185383551 -0.3885600265131222 -0.21224842888183326 -0.15539496318162357 -0.21157302088013066 -0.35505154313282533 1.1554353144882366 -0.05808140869907918 -0.4392652154897718 -0.6463781319885843 -0.026971672704697965</Array>
			</VectorInstance>
			<VectorInstance id="129">
				<Array type="real">-0.019802988733813188 -0.22323657094216673 -0.3047902868460088 -0.21224842888183326 1.7934595380262606 1.6868369148832043 -0.35505154313282533 1.1554353144882366 -0.05808140869907918 -0.4392652154897718 -0.6463781319885843 -0.026971672704697965</Array>
			</VectorInstance>
			<VectorInstance id="132">
				<Array type="real">0.4799344507715062 -0.25741933049078347 -0.36501937939954937 -0.21224842888183326 -0.19118148073506228 -0.1960096580811083 -0.35505154313282533 1.1554353144882366 -0.05808140869907918 -0.4392652154897718 -0.6463781319885843 -0.026971672704697965</Array>
			</VectorInstance>
			<VectorInstance id="140">
				<Array type="real">-0.04556265056398429 -0.10213451638181976 -0.38837261713702276 -0.21224842888183326 -0.19118148073506228 -0.1362429092745725 -0.35505154313282533 1.1554353144882366 -0.05808140869907918 -0.4392652154897718 -0.6463781319885843 -0.026971672704697965</Array>
			</VectorInstance>
			<VectorInstance id="147">
				<Array type="real">-0.7462254523446383 -0.13302287864707008 -0.38184373110569897 -0.21224842888183326 -0.17889813954611222 -0.1365594800485591 -0.35505154313282533 -0.865474672152425 -0.05808140869907918 -0.4392652154897718 1.547082041472523 -0.026971672704697965</Array>
			</VectorInstance>
			<VectorInstance id="151">
				<Array type="real">0.4953902478696089 -0.4044255169800077 -0.3885600265131222 -0.21224842888183326 -0.027138977487679808 -0.09804896645432828 -0.35505154313282533 1.1554353144882366 -0.05808140869907918 -0.4392652154897718 -0.6463781319885843 -0.026971672704697965</Array>
			</VectorInstance>
			<VectorInstance id="155">
				<Array type="real">-1.3850650657328816 -0.3114312391068865 -0.37266637957660376 -0.21224842888183326 -0.14227947659082396 -0.15629385780325455 -0.35505154313282533 1.1554353144882366 -0.05808140869907918 -0.4392652154897718 -0.6463781319885843 -0.026971672704697965</Array>
			</VectorInstance>
			<VectorInstance id="159">
				<Array type="real">0.3202245474244454 -0.2953667308183964 -0.3885600265131222 -0.21224842888183326 0.35100658845374416 0.30016937843117336 -0.35505154313282533 1.1554353144882366 -0.05808140869907918 -0.4392652154897718 -0.6463781319885843 -0.026971672704697965</Array>
			</VectorInstance>
			<VectorInstance id="171">
				<Array type="real">0.2738571561301374 -0.17623409506354906 -0.3885600265131222 -0.21224842888183326 0.05254751798433048 0.06484945522929648 -0.35505154313282533 1.1554353144882366 -0.05808140869907918 -0.4392652154897718 -0.6463781319885843 -0.026971672704697965</Array>
			</VectorInstance>
			<VectorInstance id="173">
				<Array type="real">-0.02495492109984741 -0.3368364240977979 -0.3885600265131222 -0.21224842888183326 -0.1069589585105536 -0.14723174801598685 -0.35505154313282533 1.1554353144882366 -0.05808140869907918 -0.4392652154897718 -0.6463781319885843 -0.026971672704697965</Array>
			</VectorInstance>
			<VectorInstance id="174">
				<Array type="real">1.9636909721893616 -0.4100910563931917 1.9590390264871216 2.8676708422650923 -0.16480932099843554 -0.2545823411534295 2.8164924764911543 -0.865474672152425 -0.05808140869907918 -0.4392652154897718 -0.6463781319885843 -0.026971672704697965</Array>
			</VectorInstance>
			<VectorInstance id="176">
				<Array type="real">0.2532494266660005 -0.3371265910890111 -0.3885600265131222 -0.21224842888183326 0.1859178288212289 0.12856986481338564 -0.35505154313282533 1.1554353144882366 -0.05808140869907918 -0.4392652154897718 -0.6463781319885843 -0.026971672704697965</Array>
			</VectorInstance>
			<VectorInstance id="178">
				<Array type="real">0.49023831550357466 -0.34963453276740575 -0.3882318222757906 -0.21224842888183326 -0.13568699560051786 -0.17922164671443744 -0.35505154313282533 -0.865474672152425 -0.05808140869907918 -0.4392652154897718 1.547082041472523 -0.026971672704697965</Array>
			</VectorInstance>
			<VectorInstance id="184">
				<Array type="real">-1.4108247275630528 -0.25527756073381697 -0.3785991071864943 -0.21224842888183326 -0.18843110214278067 -0.19259424764956729 -0.35505154313282533 1.1554353144882366 -0.05808140869907918 -0.4392652154897718 -0.6463781319885843 -0.026971672704697965</Array>
			</VectorInstance>
			<VectorInstance id="188">
				<Array type="real">0.335680344522548 -0.2682439377014707 -0.3885600265131222 -0.21224842888183326 13.651284552139785 12.840531297828054 -0.35505154313282533 1.1554353144882366 -0.05808140869907918 -0.4392652154897718 -0.6463781319885843 -0.026971672704697965</Array>
			</VectorInstance>
			<VectorInstance id="195">
				<Array type="real">0.3305284121565138 -0.36338555554752916 -0.3885600265131222 -0.21224842888183326 -0.14524765697022782 -0.19352111060806723 -0.35505154313282533 1.1554353144882366 -0.05808140869907918 -0.4392652154897718 -0.6463781319885843 -0.026971672704697965</Array>
			</VectorInstance>
			<VectorInstance id="198">
				<Array type="real">0.2068820353716925 -0.3363751494099494 -0.3885600265131222 -0.21224842888183326 48.39479553754875 45.54546739485054 -0.35505154313282533 1.1554353144882366 -0.05808140869907918 -0.4392652154897718 -0.6463781319885843 -0.026971672704697965</Array>
			</VectorInstance>
			<VectorInstance id="208">
				<Array type="real">-0.2928554041336269 -0.4047881402113229 -0.37832259115272315 -0.21224842888183326 -0.19118148073506228 -0.252729657928004 -0.35505154313282533 1.1554353144882366 -0.05808140869907918 -0.4392652154897718 -0.6463781319885843 -0.026971672704697965</Array>
			</VectorInstance>
			<VectorInstance id="222">
				<Array type="real">-0.11768970368846338 -0.3284996240958695 -0.3847205125946576 -0.21224842888183326 -0.19118148073506228 -0.22336737543014018 -0.35505154313282533 -0.865474672152425 -0.05808140869907918 -0.4392652154897718 1.547082041472523 -0.026971672704697965</Array>
			</VectorInstance>
			<VectorInstance id="233">
				<Array type="real">-1.5138633748837371 -0.37218522638106366 -0.3883351986829115 -0.21224842888183326 -0.19118148073506228 -0.24018129527943927 -0.35505154313282533 1.1554353144882366 -0.05808140869907918 -0.4392652154897718 -0.6463781319885843 -0.026971672704697965</Array>
			</VectorInstance>
			<VectorInstance id="251">
				<Array type="real">0.11929918514911077 -0.4250485521207649 -0.3716373720885448 -0.20320210690028953 -0.1522918555311066 -0.22389045137492292 -0.35505154313282533 1.1554353144882366 -0.05808140869907918 -0.4392652154897718 -0.6463781319885843 -0.026971672704697965</Array>
			</VectorInstance>
			<VectorInstance id="253">
				<Array type="real">0.13475498224721344 -0.27492801770728875 -0.3835589549894928 -0.21224842888183326 -0.19118148073506228 -0.20274848387554037 -0.35505154313282533 1.1554353144882366 -0.05808140869907918 -0.4392652154897718 -0.6463781319885843 -0.026971672704697965</Array>
			</VectorInstance>
			<VectorInstance id="257">
				<Array type="real">-0.622579075559817 -0.3231432153818769 -0.38849914224880566 -0.21224842888183326 0.037081377503559186 -0.006263955231042379 -0.35505154313282533 -0.865474672152425 -0.05808140869907918 -0.4392652154897718 1.547082041472523 -0.026971672704697965</Array>
			</VectorInstance>
			<VectorInstance id="263">
				<Array type="real">-0.36498245725810596 -0.31348380940147663 -0.38503539839916995 -0.21224842888183326 -0.19118148073506228 -0.21758801812392267 -0.35505154313282533 1.1554353144882366 -0.05808140869907918 -0.4392652154897718 -0.6463781319885843 -0.026971672704697965</Array>
			</VectorInstance>
			<VectorInstance id="275">
				<Array type="real">-0.10738583895639493 -0.33626476032483077 -0.38691839965487657 -0.21224842888183326 -0.14535880916540947 -0.18318744575923715 -0.35505154313282533 1.1554353144882366 -0.05808140869907918 -0.4392652154897718 -0.6463781319885843 -0.026971672704697965</Array>
			</VectorInstance>
			<VectorInstance id="287">
				<Array type="real">-1.4726479159554633 -0.31206801903029446 -0.3885600265131222 -0.21224842888183326 -0.02377622489233496 -0.05933399754989159 -0.35505154313282533 1.1554353144882366 -0.05808140869907918 -0.4392652154897718 -0.6463781319885843 -0.026971672704697965</Array>
			</VectorInstance>
			<VectorInstance id="295">
				<Array type="real">-1.5138633748837371 -0.3643790030229932 -0.3718618796421568 -0.21224842888183326 0.0315970869822775 -0.02730161805042222 -0.35505154313282533 1.1554353144882366 -0.05808140869907918 -0.4392652154897718 -0.6463781319885843 -0.026971672704697965</Array>
			</VectorInstance>
			<VectorInstance id="304">
				<Array type="real">0.14505884697928187 -0.3327760243953763 -0.3885600265131222 -0.21224842888183326 -0.04379013438252985 -0.08615889114613526 -0.35505154313282533 1.1554353144882366 -0.05808140869907918 -0.4392652154897718 -0.6463781319885843 -0.026971672704697965</Array>
			</VectorInstance>
			<VectorInstance id="320">
				<Array type="real">0.21718590010376096 -0.22757273976762 -0.3852239208157265 -0.21224842888183326 -0.046046091650445674 -0.0477930483959052 -0.35505154313282533 1.1554353144882366 -0.05808140869907918 -0.4392652154897718 -0.6463781319885843 -0.026971672704697965</Array>
			</VectorInstance>
			<VectorInstance id="322">
				<Array type="real">1.479409329782145 -0.43498405839688137 -0.3867804206908691 -0.21224842888183326 -0.18020408967275833 -0.2540100267632357 -0.35505154313282533 1.1554353144882366 -0.05808140869907918 -0.4392652154897718 -0.6463781319885843 -0.026971672704697965</Array>
			</VectorInstance>
			<VectorInstance id="333">
				<Array type="real">-0.2670957423034558 -0.3770848176657965 -0.3885600265131222 -0.21224842888183326 -0.01637943035509 -0.07738959798892987 -0.35505154313282533 -0.865474672152425 -0.05808140869907918 -0.4392652154897718 1.547082041472523 -0.026971672704697965</Array>
			</VectorInstance>
			<VectorInstance id="349">
				<Array type="real">-0.6277310079258512 -0.29379218386298955 -0.3821833511425899 -0.21224842888183326 -0.19118148073506228 -0.2100090127723415 -0.35505154313282533 1.1554353144882366 -0.05808140869907918 -0.4392652154897718 -0.6463781319885843 -0.026971672704697965</Array>
			</VectorInstance>
			<VectorInstance id="352">
				<Array type="real">0.23779362956789785 -0.3655051964543042 -0.3692806436906237 -0.21224842888183326 -0.19118148073506228 -0.23761025397740557 -0.35505154313282533 1.1554353144882366 -0.05808140869907918 -0.4392652154897718 -0.6463781319885843 -0.026971672704697965</Array>
			</VectorInstance>
			<VectorInstance id="359">
				<Array type="real">-0.014651056367778966 -0.18433565930739412 -0.3881303485019297 -0.21224842888183326 0.04176807733032742 0.0515761941742077 -0.35505154313282533 1.1554353144882366 -0.05808140869907918 -0.4392652154897718 -0.6463781319885843 -0.026971672704697965</Array>
			</VectorInstance>
			<VectorInstance id="360">
				<Array type="real">-1.5035595101516688 -0.3520349972524451 -0.385158118244433 -0.21224842888183326 -0.19118148073506228 -0.2324257804234971 -0.35505154313282533 1.1554353144882366 -0.05808140869907918 -0.4392652154897718 -0.6463781319885843 -0.026971672704697965</Array>
			</VectorInstance>
			<VectorInstance id="400">
				<Array type="real">-0.2773996070355242 -0.3068933318260196 -0.3885600265131222 -0.21224842888183326 -0.135140880842095 -0.16225672882657363 -0.35505154313282533 1.1554353144882366 -0.05808140869907918 -0.4392652154897718 -0.6463781319885843 -0.026971672704697965</Array>
			</VectorInstance>
			<VectorInstance id="403">
				<Array type="real">0.23779362956789785 -0.42861803446555263 -0.3883561276487703 -0.21224842888183326 -0.19118148073506228 -0.2619014195851321 -0.35505154313282533 1.1554353144882366 -0.05808140869907918 -0.4392652154897718 -0.6463781319885843 -0.026971672704697965</Array>
			</VectorInstance>
			<VectorInstance id="405">
				<Array type="real">-0.030106853465881628 -0.0579427247920858 -0.36821580327617004 -0.21224842888183326 -0.1213464149907319 -0.05344396239873739 -0.35505154313282533 1.1554353144882366 -0.05808140869907918 -0.4392652154897718 -0.6463781319885843 -0.026971672704697965</Array>
			</VectorInstance>
			<VectorInstance id="423">
				<Array type="real">-0.8956314909596307 -0.3359157911804223 -0.3885600265131222 -0.21224842888183326 -0.08881135588346258 -0.12978092122749782 -0.35505154313282533 -0.865474672152425 -0.05808140869907918 -0.4392652154897718 1.547082041472523 -0.026971672704697965</Array>
			</VectorInstance>
			<VectorInstance id="434">
				<Array type="real">0.36659193871875334 -0.41859244921927496 -0.3783806214671499 -0.21224842888183326 -0.18329086817792523 -0.25060913878949503 -0.35505154313282533 1.1554353144882366 -0.05808140869907918 -0.4392652154897718 -0.6463781319885843 -0.026971672704697965</Array>
			</VectorInstance>
			<VectorInstance id="440">
				<Array type="real">1.8245887983064377 -0.2981001215743615 -0.3806672695399983 -0.21224842888183326 -0.15050190439045258 -0.17334366624803862 -0.35505154313282533 1.1554353144882366 -0.05808140869907918 -0.4392652154897718 -0.6463781319885843 -0.026971672704697965</Array>
			</VectorInstance>
			<VectorInstance id="444">
				<Array type="real">-0.8853276262275622 -0.38488897798091476 -0.3836845287846457 -0.21224842888183326 -0.19118148073506228 -0.24507077487939652 -0.35505154313282533 1.1554353144882366 -0.05808140869907918 -0.4392652154897718 -0.6463781319885843 -0.026971672704697965</Array>
			</VectorInstance>
			<VectorInstance id="445">
				<Array type="real">1.108470199427681 -0.4219223525576592 -0.3885600265131222 -0.21224842888183326 0.7853593971867086 0.6606550492787279 -0.35505154313282533 1.1554353144882366 -0.05808140869907918 -0.4392652154897718 -0.6463781319885843 -0.026971672704697965</Array>
			</VectorInstance>
			<VectorInstance id="456">
				<Array type="real">0.24294556193393205 -0.3763523994143773 -0.24356922473186857 -0.07353270488533653 -0.1189498678181688 -0.17373723321267656 -0.35505154313282533 1.1554353144882366 -0.05808140869907918 -0.4392652154897718 -0.6463781319885843 -0.026971672704697965</Array>
			</VectorInstance>
			<VectorInstance id="466">
				<Array type="real">-1.3902169980989159 -0.3819497552579943 -0.37281763892076525 -0.21224842888183326 -0.19118148073506228 -0.16747410671760177 -0.35505154313282533 1.1554353144882366 -0.05808140869907918 -0.4392652154897718 -0.6463781319885843 -0.026971672704697965</Array>
			</VectorInstance>
			<VectorInstance id="468">
				<Array type="real">-0.6277310079258512 -0.287968485062225 -0.38844840536187514 -0.21224842888183326 -0.19118148073506228 -0.2077675602172579 -0.35505154313282533 1.1554353144882366 -0.05808140869907918 -0.4392652154897718 -0.6463781319885843 -0.026971672704697965</Array>
			</VectorInstance>
			<VectorInstance id="480">
				<Array type="real">1.0672547404994073 -0.40106006958318297 -0.3885600265131222 -0.21224842888183326 -0.16971044233284852 -0.26709884424601127 -0.35505154313282533 1.1554353144882366 -0.05808140869907918 -0.4392652154897718 -0.6463781319885843 -0.026971672704697965</Array>
			</VectorInstance>
			<VectorInstance id="482">
				<Array type="real">-1.4829517806875319 -0.36195946081970726 -0.38213388267783266 -0.21224842888183326 0.23777681894164074 0.16786738069446908 -0.35505154313282533 1.1554353144882366 -0.05808140869907918 -0.4392652154897718 -0.6463781319885843 -0.026971672704697965</Array>
			</VectorInstance>
			<VectorInstance id="494">
				<Array type="real">0.10384338805100811 -0.42010045761041614 -0.3885083383095618 -0.21224842888183326 0.09211980216253284 0.0082692700836781 -0.35505154313282533 1.1554353144882366 -0.05808140869907918 -0.4392652154897718 -0.6463781319885843 -0.026971672704697965</Array>
			</VectorInstance>
			<VectorInstance id="500">
				<Array type="real">0.45932672130736935 -0.3105374474641298 -0.3773608100398471 -0.21224842888183326 -0.1272904412652052 -0.15626355288160304 -0.35505154313282533 1.1554353144882366 -0.05808140869907918 -0.4392652154897718 -0.6463781319885843 -0.026971672704697965</Array>
			</VectorInstance>
			<VectorInstance id="501">
				<Array type="real">8.047407303236947E-4 -0.21835846787849816 -0.3885600265131222 -0.21224842888183326 0.06561603332939825 0.060948012612956064 -0.35505154313282533 1.1554353144882366 -0.05808140869907918 -0.4392652154897718 -0.6463781319885843 -0.026971672704697965</Array>
			</VectorInstance>
			<VectorInstance id="511">
				<Array type="real">-0.24133608047328467 -0.40512704387774934 -0.3767427713359251 -0.21224842888183326 -0.19118148073506228 -0.25286009676336046 -0.35505154313282533 1.1554353144882366 -0.05808140869907918 -0.4392652154897718 -0.6463781319885843 -0.026971672704697965</Array>
			</VectorInstance>
			<VectorInstance id="515">
				<Array type="real">0.2223378324697952 -0.4303710997850411 -0.3885213396368377 -0.21224842888183326 -0.13161562641234012 -0.20646036140243534 -0.35505154313282533 1.1554353144882366 -0.05808140869907918 -0.4392652154897718 -0.6463781319885843 -0.026971672704697965</Array>
			</VectorInstance>
			<VectorInstance id="517">
				<Array type="real">0.38719966818289026 -0.3616070822253674 -0.3885600265131222 -0.21224842888183326 -0.13935970917740156 -0.18728968904136717 -0.35505154313282533 1.1554353144882366 -0.05808140869907918 -0.4392652154897718 -0.6463781319885843 -0.026971672704697965</Array>
			</VectorInstance>
			<VectorInstance id="519">
				<Array type="real">0.474782518405472 -0.31670110859809886 -0.36934723585471996 -0.21224842888183326 0.018232961317232312 -0.02154119844708875 -0.35505154313282533 1.1554353144882366 -0.05808140869907918 -0.4392652154897718 -0.6463781319885843 -0.026971672704697965</Array>
			</VectorInstance>
			<VectorInstance id="536">
				<Array type="real">-0.11768970368846338 -0.3441432987674328 -0.3884740909108837 -0.21224842888183326 -0.0627084252042768 -0.10835651804342733 -0.35505154313282533 1.1554353144882366 -0.05808140869907918 -0.4392652154897718 -0.6463781319885843 -0.026971672704697965</Array>
			</VectorInstance>
			<VectorInstance id="546">
				<Array type="real">0.474782518405472 -0.409689946552699 -0.37400900444700175 -0.21224842888183326 -0.19118148073506228 -0.2546162881821236 -0.35505154313282533 1.1554353144882366 -0.05808140869907918 -0.4392652154897718 -0.6463781319885843 -0.026971672704697965</Array>
			</VectorInstance>
			<VectorInstance id="551">
				<Array type="real">-1.3541534715366763 -0.424145737379623 -0.37907793655690075 -0.21224842888183326 -0.19118148073506228 -0.26018010087115023 -0.35505154313282533 1.1554353144882366 -0.05808140869907918 -0.4392652154897718 -0.6463781319885843 -0.026971672704697965</Array>
			</VectorInstance>
			<VectorInstance id="565">
				<Array type="real">-1.4829517806875319 -0.16586497516232362 -0.3885600265131222 -0.21224842888183326 0.23799871299624067 0.277569347810389 -0.35505154313282533 1.1554353144882366 -0.05808140869907918 -0.4392652154897718 -0.6463781319885843 -0.026971672704697965</Array>
			</VectorInstance>
			<VectorInstance id="618">
				<Array type="real">-0.25679187757138733 -0.3620888896196497 -0.3885600265131222 -0.21224842888183326 -0.15771859923411782 -0.20477066403433727 -0.35505154313282533 1.1554353144882366 -0.05808140869907918 -0.4392652154897718 -0.6463781319885843 -0.026971672704697965</Array>
			</VectorInstance>
			<VectorInstance id="620">
				<Array type="real">-0.6174271431937828 -0.37461877556018225 -0.36906469481562576 -0.21224842888183326 -0.18740918643152332 -0.23756412689021963 -0.35505154313282533 1.1554353144882366 -0.05808140869907918 -0.4392652154897718 -0.6463781319885843 -0.026971672704697965</Array>
			</VectorInstance>
			<VectorInstance id="622">
				<Array type="real">-1.3747612010008132 -0.2668154976195559 -0.21773273348469116 -0.1231783278591105 -0.19003219236679975 -0.19854337771137628 -0.35505154313282533 1.1554353144882366 -0.05808140869907918 -0.4392652154897718 -0.6463781319885843 -0.026971672704697965</Array>
			</VectorInstance>
			<VectorInstance id="632">
				<Array type="real">-1.5396230367139083 -0.3762708603562257 -0.24506525257990092 -0.07554188519013111 -0.0016856305021838063 -0.06323358672449547 -0.35505154313282533 1.1554353144882366 -0.05808140869907918 -0.4392652154897718 -0.6463781319885843 -0.026971672704697965</Array>
			</VectorInstance>
			<VectorInstance id="643">
				<Array type="real">-1.5138633748837371 -0.3930957737024983 -0.3885600265131222 -0.21224842888183326 -0.1459081378509734 -0.2055783446294477 -0.35505154313282533 1.1554353144882366 -0.05808140869907918 -0.4392652154897718 -0.6463781319885843 -0.026971672704697965</Array>
			</VectorInstance>
			<VectorInstance id="655">
				<Array type="real">-0.7462254523446383 -0.3817713400460603 -0.3664628438327217 -0.21224842888183326 -0.15974180518493863 -0.21425216359681787 -0.35505154313282533 1.1554353144882366 -0.05808140869907918 -0.4392652154897718 -0.6463781319885843 -0.026971672704697965</Array>
			</VectorInstance>
			<VectorInstance id="660">
				<Array type="real">0.19657817063962407 -0.418716948432374 -0.3883948145250548 -0.21224842888183326 -0.0818934342721993 -0.15513258565935917 -0.35505154313282533 1.1554353144882366 -0.05808140869907918 -0.4392652154897718 -0.6463781319885843 -0.026971672704697965</Array>
			</VectorInstance>
			<VectorInstance id="661">
				<Array type="real">0.21203396773772673 -0.4388481867077124 -0.3885600265131222 -0.21224842888183326 -0.18843374381788414 -0.26325025919693956 -0.35505154313282533 1.1554353144882366 -0.05808140869907918 -0.4392652154897718 -0.6463781319885843 -0.026971672704697965</Array>
			</VectorInstance>
			<VectorInstance id="672">
				<Array type="real">-1.3850650657328816 -0.25577429261513956 -0.3871581029061242 -0.21224842888183326 -0.1902596669877812 -0.1945080860940492 -0.35505154313282533 1.1554353144882366 -0.05808140869907918 -0.4392652154897718 -0.6463781319885843 -0.026971672704697965</Array>
			</VectorInstance>
			<VectorInstance id="673">
				<Array type="real">-0.41134984855241397 -0.44122030063934153 -0.3885600265131222 -0.21224842888183326 -0.08467386053251369 -0.166413164906265 -0.35505154313282533 -0.865474672152425 -0.05808140869907918 -0.4392652154897718 1.547082041472523 -0.026971672704697965</Array>
			</VectorInstance>
			<VectorInstance id="679">
				<Array type="real">1.4948651268802478 -0.160630231691901 -0.3885600265131222 -0.21224842888183326 0.7042882846771407 0.6848469335141569 -0.35505154313282533 1.1554353144882366 -0.05808140869907918 -0.4392652154897718 -0.6463781319885843 -0.026971672704697965</Array>
			</VectorInstance>
			<VectorInstance id="682">
				<Array type="real">0.3562880739866849 -0.38620820708381776 -0.3867052761902696 -0.21224842888183326 -0.13846576277352965 -0.19591611255725144 -0.35505154313282533 1.1554353144882366 -0.05808140869907918 -0.4392652154897718 -0.6463781319885843 -0.026971672704697965</Array>
			</VectorInstance>
			<VectorInstance id="684">
				<Array type="real">-0.49378076640896146 -0.3419496977708249 -0.3713123389066464 -0.21224842888183326 -0.0995913066846309 -0.14225885309007436 -0.35505154313282533 1.1554353144882366 -0.05808140869907918 -0.4392652154897718 -0.6463781319885843 -0.026971672704697965</Array>
			</VectorInstance>
			<VectorInstance id="686">
				<Array type="real">-0.41650178091844814 -0.36083047142229013 1.406876960200284 2.1864419230246717 6.505807636793798 6.01071128701507 2.8164924764911543 -0.865474672152425 -0.05808140869907918 -0.4392652154897718 -0.6463781319885843 -0.026971672704697965</Array>
			</VectorInstance>
			<VectorInstance id="691">
				<Array type="real">-0.6534906697560223 -0.12861016549903342 -0.3567359483970607 -0.21224842888183326 -0.034739558073189764 9.477907449233067E-4 -0.35505154313282533 -0.865474672152425 -0.05808140869907918 -0.4392652154897718 1.547082041472523 -0.026971672704697965</Array>
			</VectorInstance>
			<VectorInstance id="694">
				<Array type="real">0.3511361416206507 -0.4296237407594005 -0.3849332904142223 -0.21224842888183326 -0.17757381303136163 -0.24373408816177136 -0.35505154313282533 1.1554353144882366 -0.05808140869907918 -0.4392652154897718 -0.6463781319885843 -0.026971672704697965</Array>
			</VectorInstance>
			<VectorInstance id="702">
				<Array type="real">-0.787440911272912 -0.23595362916905893 -0.37821149322562253 -0.21224842888183326 -0.027986194411215526 -0.03400486277846235 -0.35505154313282533 1.1554353144882366 -0.05808140869907918 -0.4392652154897718 -0.6463781319885843 -0.026971672704697965</Array>
			</VectorInstance>
			<VectorInstance id="710">
				<Array type="real">0.3511361416206507 -0.41164577099095634 -0.18989974573679905 0.02315318484568779 -0.19118148073506228 -0.2553690550806884 -0.35505154313282533 1.1554353144882366 -0.05808140869907918 -0.4392652154897718 -0.6463781319885843 -0.026971672704697965</Array>
			</VectorInstance>
			<VectorInstance id="715">
				<Array type="real">0.4953902478696089 -0.4009974996620699 -0.37402263998536434 -0.21224842888183326 -0.05869809845146702 -0.12646078647737602 -0.35505154313282533 1.1554353144882366 -0.05808140869907918 -0.4392652154897718 -0.6463781319885843 -0.026971672704697965</Array>
			</VectorInstance>
			<VectorInstance id="717">
				<Array type="real">0.23779362956789785 -0.3935173565297604 -0.21033655745028848 -0.01722862513149478 -0.05892083757593636 -0.12379162768923123 -0.35505154313282533 1.1554353144882366 -0.05808140869907918 -0.4392652154897718 -0.6463781319885843 -0.026971672704697965</Array>
			</VectorInstance>
			<VectorInstance id="719">
				<Array type="real">-1.4005208628309842 -0.38937021672932365 -0.3885600265131222 -0.21224842888183326 -0.0931291017541096 -0.15442237269649273 -0.35505154313282533 1.1554353144882366 -0.05808140869907918 -0.4392652154897718 -0.6463781319885843 -0.026971672704697965</Array>
			</VectorInstance>
			<VectorInstance id="721">
				<Array type="real">-0.23618414810725044 -0.3570646362500059 -0.3879112285714986 -0.21224842888183326 -0.12906153470499448 -0.175839667189709 -0.35505154313282533 1.1554353144882366 -0.05808140869907918 -0.4392652154897718 -0.6463781319885843 -0.026971672704697965</Array>
			</VectorInstance>
			<VectorInstance id="724">
				<Array type="real">0.1296030498811792 -0.4037587632141299 -0.3885600265131222 -0.21224842888183326 -0.06272788842764637 -0.13131993608093448 -0.35505154313282533 1.1554353144882366 -0.05808140869907918 -0.4392652154897718 -0.6463781319885843 -0.026971672704697965</Array>
			</VectorInstance>
			<VectorInstance id="733">
				<Array type="real">1.7009424215216165 -0.35319356959998327 -0.3885600265131222 -0.21224842888183326 -0.08250552436727493 -0.13049027746983208 -0.35505154313282533 1.1554353144882366 -0.05808140869907918 -0.4392652154897718 -0.6463781319885843 -0.026971672704697965</Array>
			</VectorInstance>
			<VectorInstance id="734">
				<Array type="real">1.201204982016297 -0.3117773742817661 -0.38427466220075596 -0.21224842888183326 -0.1739294458926162 -0.2006784422928706 -0.35505154313282533 1.1554353144882366 -0.05808140869907918 -0.4392652154897718 -0.6463781319885843 -0.026971672704697965</Array>
			</VectorInstance>
			<VectorInstance id="743">
				<Array type="real">-0.41134984855241397 -0.33221704290750415 -0.36939607010839054 -0.21224842888183326 2.7176960318638645 2.515596498086114 -0.35505154313282533 1.1554353144882366 -0.05808140869907918 -0.4392652154897718 -0.6463781319885843 -0.026971672704697965</Array>
			</VectorInstance>
			<VectorInstance id="750">
				<Array type="real">0.6963156101449435 -0.37643733706433957 -0.3885600265131222 -0.21224842888183326 0.12492739962972377 0.05598191085399449 -0.35505154313282533 1.1554353144882366 -0.05808140869907918 -0.4392652154897718 -0.6463781319885843 -0.026971672704697965</Array>
			</VectorInstance>
			<VectorInstance id="753">
				<Array type="real">0.5005421802356431 -0.26691072333897664 -0.3885600265131222 -0.21224842888183326 0.13156556540769285 0.10439071228088849 -0.35505154313282533 1.1554353144882366 -0.05808140869907918 -0.4392652154897718 -0.6463781319885843 -0.026971672704697965</Array>
			</VectorInstance>
			<VectorInstance id="765">
				<Array type="real">0.36659193871875334 -0.3102748275253876 -0.35927079497866216 -0.21224842888183326 2.240318682146227 2.0743141783364893 -0.35505154313282533 1.1554353144882366 -0.05808140869907918 -0.4392652154897718 -0.6463781319885843 -0.026971672704697965</Array>
			</VectorInstance>
			<VectorInstance id="772">
				<Array type="real">0.4490228565753009 -0.274278843238987 -0.38192712986359095 -0.21224842888183326 0.016293403975293136 -0.007040737468815633 -0.35505154313282533 1.1554353144882366 -0.05808140869907918 -0.4392652154897718 -0.6463781319885843 -0.026971672704697965</Array>
			</VectorInstance>
			<VectorInstance id="782">
				<Array type="real">-0.24133608047328467 -0.41652491100516137 -0.2758768888014863 -0.08504293859937914 -0.10730815424516185 -0.1782315974823513 -0.35505154313282533 1.1554353144882366 -0.05808140869907918 -0.4392652154897718 -0.6463781319885843 -0.026971672704697965</Array>
			</VectorInstance>
			<VectorInstance id="800">
				<Array type="real">-0.9059353556916991 -0.3312432323435079 -0.37184888148593626 -0.21224842888183326 -0.19118148073506228 -0.22442334826239074 -0.35505154313282533 1.1554353144882366 -0.05808140869907918 -0.4392652154897718 -0.6463781319885843 -0.026971672704697965</Array>
			</VectorInstance>
			<VectorInstance id="801">
				<Array type="real">-0.019802988733813188 -0.30622455302061247 -0.1948224921912296 -0.0633989071917753 -0.11322177353055557 -0.1413497785752081 -0.35505154313282533 1.1554353144882366 -0.05808140869907918 -0.4392652154897718 -0.6463781319885843 -0.026971672704697965</Array>
			</VectorInstance>
			<VectorInstance id="805">
				<Array type="real">0.4953902478696089 -0.38470621952066053 -0.37552572026068004 -0.21224842888183326 -0.09998644449851594 -0.15908743330828382 -0.35505154313282533 1.1554353144882366 -0.05808140869907918 -0.4392652154897718 -0.6463781319885843 -0.026971672704697965</Array>
			</VectorInstance>
			<VectorInstance id="810">
				<Array type="real">0.08323565858687122 -0.398408603348658 -0.3885600265131222 -0.21224842888183326 -0.07550065371677402 -0.14129370517160064 -0.35505154313282533 1.1554353144882366 -0.05808140869907918 -0.4392652154897718 -0.6463781319885843 -0.026971672704697965</Array>
			</VectorInstance>
			<VectorInstance id="815">
				<Array type="real">0.2017301030056583 -0.29462120138611064 -0.38047446936966245 -0.21224842888183326 -0.19118148073506228 -0.210328088931494 -0.35505154313282533 1.1554353144882366 -0.05808140869907918 -0.4392652154897718 -0.6463781319885843 -0.026971672704697965</Array>
			</VectorInstance>
			<VectorInstance id="816">
				<Array type="real">-0.25679187757138733 -0.3681140282775059 -0.3885600265131222 -0.21224842888183326 -0.13118387112214647 -0.18209182139328603 -0.35505154313282533 1.1554353144882366 -0.05808140869907918 -0.4392652154897718 -0.6463781319885843 -0.026971672704697965</Array>
			</VectorInstance>
			<VectorInstance id="818">
				<Array type="real">0.07293179385480278 -0.4361020539469879 -0.3885600265131222 -0.21224842888183326 -0.17694442229329085 -0.25136945945567823 -0.35505154313282533 1.1554353144882366 -0.05808140869907918 -0.4392652154897718 -0.6463781319885843 -0.026971672704697965</Array>
			</VectorInstance>
			<VectorInstance id="819">
				<Array type="real">-0.41650178091844814 -0.2706050360695477 5.9896281055267435 8.219813284700244 2.1612621873708546 1.8830765301127583 2.8164924764911543 -0.865474672152425 -0.05808140869907918 -0.4392652154897718 -0.6463781319885843 -0.026971672704697965</Array>
			</VectorInstance>
			<VectorInstance id="820">
				<Array type="real">-1.4932556454196002 -0.25892221384890673 -0.36234459414168274 -0.21224842888183326 0.07145793479548353 0.050839186754309124 -0.35505154313282533 1.1554353144882366 -0.05808140869907918 -0.4392652154897718 -0.6463781319885843 -0.026971672704697965</Array>
			</VectorInstance>
			<VectorInstance id="822">
				<Array type="real">-1.5138633748837371 -0.3523974901863106 -0.2544324964214998 -0.10588336557370064 -0.1366364903765912 -0.1811795665646396 -0.35505154313282533 1.1554353144882366 -0.05808140869907918 -0.4392652154897718 -0.6463781319885843 -0.026971672704697965</Array>
			</VectorInstance>
			<VectorInstance id="823">
				<Array type="real">-0.9059353556916991 -0.2547481567670055 -0.38534552762053254 -0.21224842888183326 -0.1668339997219421 -0.17204429493349238 -0.35505154313282533 1.1554353144882366 -0.05808140869907918 -0.4392652154897718 -0.6463781319885843 -0.026971672704697965</Array>
			</VectorInstance>
			<VectorInstance id="825">
				<Array type="real">-1.4777998483214976 -0.07600942169465152 -0.3885172172647746 -0.21224842888183326 -0.19118148073506228 -0.12618776009160537 -0.35505154313282533 -0.865474672152425 -0.05808140869907918 -0.4392652154897718 1.547082041472523 -0.026971672704697965</Array>
			</VectorInstance>
			<VectorInstance id="844">
				<Array type="real">-0.36498245725810596 -0.42935773308696845 -0.3832542165623665 -0.21224842888183326 -0.19118148073506228 -0.26218611826576216 -0.35505154313282533 1.1554353144882366 -0.05808140869907918 -0.4392652154897718 -0.6463781319885843 -0.026971672704697965</Array>
			</VectorInstance>
			<VectorInstance id="846">
				<Array type="real">-1.4108247275630528 -0.4261674000333544 -0.3852465906910181 -0.21224842888183326 -0.12589926772755863 -0.19945715583092005 -0.35505154313282533 1.1554353144882366 -0.05808140869907918 -0.4392652154897718 -0.6463781319885843 -0.026971672704697965</Array>
			</VectorInstance>
			<VectorInstance id="848">
				<Array type="real">-1.4984075777856345 -0.34749483148245164 -0.3819765983283482 -0.21224842888183326 0.14473234840497312 0.0857792820084315 -0.35505154313282533 1.1554353144882366 -0.05808140869907918 -0.4392652154897718 -0.6463781319885843 -0.026971672704697965</Array>
			</VectorInstance>
			<VectorInstance id="849">
				<Array type="real">0.11414725278307655 -0.4184677654181225 -0.38850358172641203 -0.21224842888183326 0.014152016888566096 -0.06455420261867569 -0.35505154313282533 1.1554353144882366 -0.05808140869907918 -0.4392652154897718 -0.6463781319885843 -0.026971672704697965</Array>
			</VectorInstance>
			<VectorInstance id="850">
				<Array type="real">0.09869145568497388 -0.37683910382114066 -0.3850661576368715 -0.21224842888183326 -0.1815137904900845 -0.23286476611371026 -0.35505154313282533 1.1554353144882366 -0.05808140869907918 -0.4392652154897718 -0.6463781319885843 -0.026971672704697965</Array>
			</VectorInstance>
			<VectorInstance id="865">
				<Array type="real">0.2223378324697952 -0.4335325230920238 -0.3885600265131222 -0.21224842888183326 -0.14553292017487549 -0.22078834573153516 -0.35505154313282533 1.1554353144882366 -0.05808140869907918 -0.4392652154897718 -0.6463781319885843 -0.026971672704697965</Array>
			</VectorInstance>
			<VectorInstance id="868">
				<Array type="real">-1.488103713053566 -0.43863491149894823 -0.3885600265131222 -0.21224842888183326 -0.1653165758510539 -0.26709884424601127 -0.35505154313282533 1.1554353144882366 -0.05808140869907918 -0.4392652154897718 -0.6463781319885843 -0.026971672704697965</Array>
			</VectorInstance>
			<VectorInstance id="873">
				<Array type="real">-0.5298442929712011 -0.3541926090076596 -0.3789748772553232 -0.21224842888183326 -0.19118148073506228 -0.23325621217264064 -0.35505154313282533 -0.865474672152425 -0.05808140869907918 -0.4392652154897718 1.547082041472523 -0.026971672704697965</Array>
			</VectorInstance>
			<VectorInstance id="877">
				<Array type="real">-0.2516399452053531 -0.3856636723256708 -0.3848914324825047 -0.21224842888183326 -0.19118148073506228 -0.24536894287844105 -0.35505154313282533 1.1554353144882366 -0.05808140869907918 -0.4392652154897718 -0.6463781319885843 -0.026971672704697965</Array>
			</VectorInstance>
			<VectorInstance id="883">
				<Array type="real">-0.38043825435620865 -0.3143283106048593 -0.34593850464716636 -0.21224842888183326 -0.10659937351802362 -0.1382299618019908 -0.35505154313282533 1.1554353144882366 -0.05808140869907918 -0.4392652154897718 -0.6463781319885843 -0.026971672704697965</Array>
			</VectorInstance>
			<VectorInstance id="890">
				<Array type="real">0.46963058603943775 -0.37375574497365344 -0.35643091506177915 -0.21224842888183326 -0.05418574474546701 -0.1117248527265103 -0.35505154313282533 1.1554353144882366 -0.05808140869907918 -0.4392652154897718 -0.6463781319885843 -0.026971672704697965</Array>
			</VectorInstance>
			<VectorInstance id="898">
				<Array type="real">-0.6586426021220565 -0.13561945165188793 -0.3885600265131222 -0.21224842888183326 -0.06491906144163875 -0.030181477850408176 -0.35505154313282533 -0.865474672152425 -0.05808140869907918 -0.4392652154897718 1.547082041472523 -0.026971672704697965</Array>
			</VectorInstance>
			<VectorInstance id="912">
				<Array type="real">-1.4056727951970185 -0.20944258800709592 -0.3017411045863158 -0.21224842888183326 0.02163078985723429 0.02294199039664806 -0.35505154313282533 1.1554353144882366 -0.05808140869907918 -0.4392652154897718 -0.6463781319885843 -0.026971672704697965</Array>
			</VectorInstance>
			<VectorInstance id="940">
				<Array type="real">-0.3855901867222428 -0.15029518457374763 -0.10835161579560003 -0.06939366039150797 -0.1704184090425535 -0.13521874375924808 -0.35505154313282533 1.1554353144882366 -0.05808140869907918 -0.4392652154897718 -0.6463781319885843 -0.026971672704697965</Array>
			</VectorInstance>
			<VectorInstance id="952">
				<Array type="real">0.335680344522548 -0.40054326646556054 -0.3397717531463089 -0.18035647013747436 0.8578768056357264 0.7372007156769205 -0.35505154313282533 1.1554353144882366 -0.05808140869907918 -0.4392652154897718 -0.6463781319885843 -0.026971672704697965</Array>
			</VectorInstance>
			<VectorInstance id="967">
				<Array type="real">-0.019802988733813188 -0.24663773229658717 -0.38145591102622406 -0.21224842888183326 -0.176210242891417 -0.17775588564562037 -0.35505154313282533 1.1554353144882366 -0.05808140869907918 -0.4392652154897718 -0.6463781319885843 -0.026971672704697965</Array>
			</VectorInstance>
			<VectorInstance id="970">
				<Array type="real">0.36659193871875334 -0.42861477702931244 -0.38203906812038135 -0.21224842888183326 -0.19118148073506228 -0.26190016584776804 -0.35505154313282533 1.1554353144882366 -0.05808140869907918 -0.4392652154897718 -0.6463781319885843 -0.026971672704697965</Array>
			</VectorInstance>
			<VectorInstance id="973">
				<Array type="real">0.24809749429996628 -0.28211773868254625 -0.37133580471685174 -0.21224842888183326 0.1743130055423624 0.13880926323937454 -0.35505154313282533 1.1554353144882366 -0.05808140869907918 -0.4392652154897718 -0.6463781319885843 -0.026971672704697965</Array>
			</VectorInstance>
			<VectorInstance id="982">
				<Array type="real">0.2532494266660005 -0.413676673905489 -0.38486891798892925 -0.21224842888183326 -0.05134356627981565 -0.12441225066962439 -0.35505154313282533 1.1554353144882366 -0.05808140869907918 -0.4392652154897718 -0.6463781319885843 -0.026971672704697965</Array>
			</VectorInstance>
			<VectorInstance id="996">
				<Array type="real">-1.534471104347874 -0.3971711521825642 -0.33804067398534937 -0.18066694222448323 -0.14967586522836787 -0.21069639517780844 -0.35505154313282533 1.1554353144882366 -0.05808140869907918 -0.4392652154897718 -0.6463781319885843 -0.026971672704697965</Array>
			</VectorInstance>
			<VectorInstance id="1000">
				<Array type="real">-1.3541534715366763 -0.3605132948555856 -0.2652742683552942 -0.11382479852901324 -0.1898834245812905 -0.23446607499764233 -0.35505154313282533 1.1554353144882366 -0.05808140869907918 -0.4392652154897718 -0.6463781319885843 -0.026971672704697965</Array>
			</VectorInstance>
			<VectorInstance id="1011">
				<Array type="real">-1.3902169980989159 -0.3768307484971846 -0.3885600265131222 -0.21224842888183326 -0.13560130862100642 -0.05943487116864134 -0.35505154313282533 1.1554353144882366 -0.05808140869907918 -0.4392652154897718 -0.6463781319885843 -0.026971672704697965</Array>
			</VectorInstance>
			<VectorInstance id="1012">
				<Array type="real">-0.25679187757138733 -0.3352201873875774 -0.3885600265131222 -0.21224842888183326 -0.11107211540565815 -0.15048460512959108 -0.35505154313282533 1.1554353144882366 -0.05808140869907918 -0.4392652154897718 -0.6463781319885843 -0.026971672704697965</Array>
			</VectorInstance>
			<VectorInstance id="1020">
				<Array type="real">-1.534471104347874 -0.4306241537193581 -0.3885600265131222 -0.21224842888183326 -0.18562509089311383 -0.26709884424601127 -0.35505154313282533 1.1554353144882366 -0.05808140869907918 -0.4392652154897718 -0.6463781319885843 -0.026971672704697965</Array>
			</VectorInstance>
			<VectorInstance id="1024">
				<Array type="real">0.2532494266660005 -0.34588167304947814 -0.3866691261583316 -0.21224842888183326 -0.09769068022549317 -0.14198167056494185 -0.35505154313282533 1.1554353144882366 -0.05808140869907918 -0.4392652154897718 -0.6463781319885843 -0.026971672704697965</Array>
			</VectorInstance>
			<VectorInstance id="1042">
				<Array type="real">0.46963058603943775 -0.41638115491482264 -0.3885600265131222 -0.21224842888183326 -0.16567529137537182 -0.2331627669477729 -0.35505154313282533 1.1554353144882366 -0.05808140869907918 -0.4392652154897718 -0.6463781319885843 -0.026971672704697965</Array>
			</VectorInstance>
			<VectorInstance id="1065">
				<Array type="real">0.335680344522548 -0.38336693003957856 -0.3385112586116296 -0.19177387961907705 0.4939749522295336 0.40098704915104527 -0.35505154313282533 1.1554353144882366 -0.05808140869907918 -0.4392652154897718 -0.6463781319885843 -0.026971672704697965</Array>
			</VectorInstance>
			<VectorInstance id="1095">
				<Array type="real">-1.4932556454196002 -0.2938736577724164 -0.3885600265131222 -0.21224842888183326 0.0777694466894546 0.04333285428903553 -0.35505154313282533 1.1554353144882366 -0.05808140869907918 -0.4392652154897718 -0.6463781319885843 -0.026971672704697965</Array>
			</VectorInstance>
			<VectorInstance id="1101">
				<Array type="real">1.2321165762125024 -0.2655819065154068 -0.3858459201678845 -0.21224842888183326 -0.19118148073506228 -0.19915130869052067 -0.35505154313282533 1.1554353144882366 -0.05808140869907918 -0.4392652154897718 -0.6463781319885843 -0.026971672704697965</Array>
			</VectorInstance>
			<VectorInstance id="1102">
				<Array type="real">-1.5396230367139083 -0.4166828478012656 -0.3885600265131222 -0.21224842888183326 -0.10841406457816075 0.0699806219600475 -0.35505154313282533 1.1554353144882366 -0.05808140869907918 -0.4392652154897718 -0.6463781319885843 -0.026971672704697965</Array>
			</VectorInstance>
			<VectorInstance id="1105">
				<Array type="real">-1.4829517806875319 -0.3372779967254538 -0.38087655919858654 -0.21224842888183326 -0.19118148073506228 -0.22674603672997842 -0.35505154313282533 1.1554353144882366 -0.05808140869907918 -0.4392652154897718 -0.6463781319885843 -0.026971672704697965</Array>
			</VectorInstance>
			<VectorInstance id="1131">
				<Array type="real">-1.5087114425177028 -0.44163807226620266 -0.3754559570411506 -0.19556035299651092 -0.1071358952917088 -0.15831955887448215 -0.35505154313282533 1.1554353144882366 -0.05808140869907918 -0.4392652154897718 -0.6463781319885843 -0.026971672704697965</Array>
			</VectorInstance>
			<VectorInstance id="1145">
				<Array type="real">0.2068820353716925 -0.33294017203657844 -0.3885600265131222 -0.21224842888183326 -0.08590007465723243 -0.12589299389994194 -0.35505154313282533 1.1554353144882366 -0.05808140869907918 -0.4392652154897718 -0.6463781319885843 -0.026971672704697965</Array>
			</VectorInstance>
			<VectorInstance id="1148">
				<Array type="real">-0.39074211908827705 -0.4015875570916731 -0.38269389106732793 -0.21224842888183326 -0.1680637538243814 -0.22971905966392514 -0.35505154313282533 1.1554353144882366 -0.05808140869907918 -0.4392652154897718 -0.6463781319885843 -0.026971672704697965</Array>
			</VectorInstance>
			<VectorInstance id="1155">
				<Array type="real">-0.6586426021220565 -0.15956496860546218 -0.3753043805914458 -0.21224842888183326 -0.19118148073506228 -0.15834701154363048 -0.35505154313282533 1.1554353144882366 -0.05808140869907918 -0.4392652154897718 -0.6463781319885843 -0.026971672704697965</Array>
			</VectorInstance>
			<VectorInstance id="1162">
				<Array type="real">0.10384338805100811 -0.2538538493635108 -0.3867886749481616 -0.21224842888183326 -0.16860131585467744 -0.17336504247009582 -0.35505154313282533 1.1554353144882366 -0.05808140869907918 -0.4392652154897718 -0.6463781319885843 -0.026971672704697965</Array>
			</VectorInstance>
			<VectorInstance id="1172">
				<Array type="real">0.21203396773772673 -0.4207759793088404 -0.3837352656715762 -0.21224842888183326 -0.19118148073506228 -0.2588831325532184 -0.35505154313282533 1.1554353144882366 -0.05808140869907918 -0.4392652154897718 -0.6463781319885843 -0.026971672704697965</Array>
			</VectorInstance>
			<VectorInstance id="1178">
				<Array type="real">-1.534471104347874 -0.22662060744180199 -0.388498508037719 -0.21224842888183326 -0.17853071824951788 -0.26709884424601127 -0.35505154313282533 1.1554353144882366 -0.05808140869907918 -0.4392652154897718 -0.6463781319885843 -0.026971672704697965</Array>
			</VectorInstance>
			<VectorInstance id="1184">
				<Array type="real">0.4799344507715062 -0.329723128005795 -0.35020079318914554 -0.21224842888183326 -0.04788167212798388 -0.08883843296921672 -0.35505154313282533 1.1554353144882366 -0.05808140869907918 -0.4392652154897718 -0.6463781319885843 -0.026971672704697965</Array>
			</VectorInstance>
			<VectorInstance id="1187">
				<Array type="real">0.4953902478696089 -0.32849161623177914 -0.3885600265131222 -0.21224842888183326 0.4178916749823141 0.3504312015925811 -0.35505154313282533 1.1554353144882366 -0.05808140869907918 -0.4392652154897718 -0.6463781319885843 -0.026971672704697965</Array>
			</VectorInstance>
			<VectorInstance id="1188">
				<Array type="real">-0.16920902734880558 -0.4048240805911727 -0.3885600265131222 -0.21224842888183326 -0.1659402906474036 -0.22896427633776653 -0.35505154313282533 -0.865474672152425 -0.05808140869907918 -0.4392652154897718 1.547082041472523 -0.026971672704697965</Array>
			</VectorInstance>
			<VectorInstance id="1196">
				<Array type="real">1.108470199427681 -0.40209681924439955 -0.3885600265131222 -0.21224842888183326 0.891014698994069 0.7678213158593445 -0.35505154313282533 1.1554353144882366 -0.05808140869907918 -0.4392652154897718 -0.6463781319885843 -0.026971672704697965</Array>
			</VectorInstance>
			<VectorInstance id="1200">
				<Array type="real">-1.5241672396158055 -0.0892350417254785 -0.36900287191890097 -0.21224842888183326 -0.19118148073506228 -0.13127809886509587 -0.35505154313282533 -0.865474672152425 -0.05808140869907918 -0.4392652154897718 1.547082041472523 -0.026971672704697965</Array>
			</VectorInstance>
			<VectorInstance id="1210">
				<Array type="real">-1.4984075777856345 -0.39542665934944776 -0.38829492627891043 -0.21224842888183326 -0.19118148073506228 -0.24912656719218823 -0.35505154313282533 1.1554353144882366 -0.05808140869907918 -0.4392652154897718 -0.6463781319885843 -0.026971672704697965</Array>
			</VectorInstance>
			<VectorInstance id="1220">
				<Array type="real">0.11414725278307655 -0.3394203799662456 -0.3843368148872458 -0.21224842888183326 -0.17024676670176106 -0.20784843672505096 -0.35505154313282533 1.1554353144882366 -0.05808140869907918 -0.4392652154897718 -0.6463781319885843 -0.026971672704697965</Array>
			</VectorInstance>
			<VectorInstance id="1225">
				<Array type="real">1.108470199427681 -0.2659754211003995 -0.3885600265131222 -0.21224842888183326 0.018834722041227367 -0.0014507509227520794 -0.35505154313282533 1.1554353144882366 -0.05808140869907918 -0.4392652154897718 -0.6463781319885843 -0.026971672704697965</Array>
			</VectorInstance>
			<VectorInstance id="1239">
				<Array type="real">0.32537647979047957 -0.4066675669116277 -0.3885600265131222 -0.21224842888183326 22.055263256553026 20.704472468192964 -0.35505154313282533 1.1554353144882366 -0.05808140869907918 -0.4392652154897718 -0.6463781319885843 -0.026971672704697965</Array>
			</VectorInstance>
			<VectorInstance id="1259">
				<Array type="real">0.1296030498811792 -0.38293439679748914 -0.3885600265131222 -0.21224842888183326 -0.05382698486052604 -0.11491959493416591 -0.35505154313282533 1.1554353144882366 -0.05808140869907918 -0.4392652154897718 -0.6463781319885843 -0.026971672704697965</Array>
			</VectorInstance>
			<VectorInstance id="1266">
				<Array type="real">-0.2825515394015584 -0.36171082614055616 -0.37304820001919914 -0.21224842888183326 0.018833251486572777 -0.03829922877426044 -0.35505154313282533 1.1554353144882366 -0.05808140869907918 -0.4392652154897718 -0.6463781319885843 -0.026971672704697965</Array>
			</VectorInstance>
			<VectorInstance id="1269">
				<Array type="real">0.474782518405472 -0.3034776493333112 -0.30823021606934153 -0.21224842888183326 -0.09347070516808037 -0.12168545548529162 -0.35505154313282533 1.1554353144882366 -0.05808140869907918 -0.4392652154897718 -0.6463781319885843 -0.026971672704697965</Array>
			</VectorInstance>
			<VectorInstance id="1274">
				<Array type="real">1.927627445627122 -0.36325597473389554 -0.3791300338266121 -0.21224842888183326 1.8462801777334654 1.6827068428107168 -0.35505154313282533 1.1554353144882366 -0.05808140869907918 -0.4392652154897718 -0.6463781319885843 -0.026971672704697965</Array>
			</VectorInstance>
			<VectorInstance id="1282">
				<Array type="real">-0.6534906697560223 -0.356364054008774 -0.38215798269912465 -0.21224842888183326 -0.19118148073506228 -0.23409196812645686 -0.35505154313282533 1.1554353144882366 -0.05808140869907918 -0.4392652154897718 -0.6463781319885843 -0.026971672704697965</Array>
			</VectorInstance>
			<VectorInstance id="1285">
				<Array type="real">0.1296030498811792 -0.35548151680822704 -0.3836122287207698 -0.21224842888183326 -0.13821062930406744 -0.18384952565513513 -0.35505154313282533 -0.865474672152425 -0.05808140869907918 -0.4392652154897718 1.547082041472523 -0.026971672704697965</Array>
			</VectorInstance>
			<VectorInstance id="1287">
				<Array type="real">-0.030106853465881628 0.022547118575659386 -0.3789593390837008 -0.21224842888183326 -0.19118148073506228 -0.08825485583836917 -0.35505154313282533 -0.865474672152425 -0.05808140869907918 -0.4392652154897718 1.547082041472523 -0.026971672704697965</Array>
			</VectorInstance>
			<VectorInstance id="1295">
				<Array type="real">-1.5241672396158055 -0.35078653052279923 -0.3793230591418837 -0.21224842888183326 -0.19118148073506228 -0.10632575187324893 -0.35505154313282533 1.1554353144882366 -0.05808140869907918 -0.4392652154897718 -0.6463781319885843 -0.026971672704697965</Array>
			</VectorInstance>
			<VectorInstance id="1298">
				<Array type="real">-0.2464880128393189 -0.21708323045201858 -0.3598178971725445 -0.21224842888183326 -0.10061180285595019 -0.09516104930221603 -0.35505154313282533 1.1554353144882366 -0.05808140869907918 -0.4392652154897718 -0.6463781319885843 -0.026971672704697965</Array>
			</VectorInstance>
			<VectorInstance id="1299">
				<Array type="real">-0.1486012978846687 -0.40146870953045083 -0.21727637421308402 -0.020216405629074632 -0.08500082937693546 -0.15142141649407484 -0.35505154313282533 1.1554353144882366 -0.05808140869907918 -0.4392652154897718 -0.6463781319885843 -0.026971672704697965</Array>
			</VectorInstance>
			<VectorInstance id="1302">
				<Array type="real">-1.349001539170642 -0.288990212513314 -0.3885600265131222 -0.21224842888183326 -0.0341382675717992 -0.06021357162458161 -0.35505154313282533 1.1554353144882366 -0.05808140869907918 -0.4392652154897718 -0.6463781319885843 -0.026971672704697965</Array>
			</VectorInstance>
			<VectorInstance id="1317">
				<Array type="real">1.340307155899221 -0.44172512182066054 -0.3885600265131222 -0.21224842888183326 0.2644730241576293 0.16231675314338778 -0.35505154313282533 1.1554353144882366 -0.05808140869907918 -0.4392652154897718 -0.6463781319885843 -0.026971672704697965</Array>
			</VectorInstance>
			<VectorInstance id="1325">
				<Array type="real">-0.854416032031357 -0.32653789283989676 -0.33771817764779744 -0.21224842888183326 -0.14891780206703606 -0.1827965785090565 -0.35505154313282533 1.1554353144882366 -0.05808140869907918 -0.4392652154897718 -0.6463781319885843 -0.026971672704697965</Array>
			</VectorInstance>
			<VectorInstance id="1348">
				<Array type="real">-0.2928554041336269 -0.42567073330075655 -0.3885600265131222 -0.21224842888183326 2.671902170300861 2.436486132207387 -0.35505154313282533 1.1554353144882366 -0.05808140869907918 -0.4392652154897718 -0.6463781319885843 -0.026971672704697965</Array>
			</VectorInstance>
			<VectorInstance id="1351">
				<Array type="real">-0.4010459838203455 -0.4082661537464869 -0.38515241034465336 -0.21224842888183326 -0.19118148073506228 -0.254068292117668 -0.35505154313282533 1.1554353144882366 -0.05808140869907918 -0.4392652154897718 -0.6463781319885843 -0.026971672704697965</Array>
			</VectorInstance>
			<VectorInstance id="1360">
				<Array type="real">-0.12284163605449759 -0.41150945271336603 -0.3885600265131222 -0.21224842888183326 -0.16383314774365118 -0.22955227707194695 -0.35505154313282533 1.1554353144882366 -0.05808140869907918 -0.4392652154897718 -0.6463781319885843 -0.026971672704697965</Array>
			</VectorInstance>
			<VectorInstance id="1363">
				<Array type="real">-1.4726479159554633 -0.3588660582104796 -0.3666112492269934 -0.21224842888183326 -0.11496243114686029 -0.16325052673337834 -0.35505154313282533 1.1554353144882366 -0.05808140869907918 -0.4392652154897718 -0.6463781319885843 -0.026971672704697965</Array>
			</VectorInstance>
			<VectorInstance id="1403">
				<Array type="real">1.3712187500954263 -0.4164399896423803 -0.3885600265131222 -0.21224842888183326 -0.1291308060359409 -0.19875759127739906 -0.35505154313282533 1.1554353144882366 -0.05808140869907918 -0.4392652154897718 -0.6463781319885843 -0.026971672704697965</Array>
			</VectorInstance>
			<VectorInstance id="1410">
				<Array type="real">-1.5190153072497714 -0.22362933088776377 -0.3885600265131222 -0.21224842888183326 0.4768196435076486 0.4463059396199791 -0.35505154313282533 1.1554353144882366 -0.05808140869907918 -0.4392652154897718 -0.6463781319885843 -0.026971672704697965</Array>
			</VectorInstance>
			<VectorInstance id="1411">
				<Array type="real">1.221812711480434 -0.34587161842961683 -0.38749867425964507 -0.21224842888183326 -0.19118148073506228 -0.23005359022565192 -0.35505154313282533 1.1554353144882366 -0.05808140869907918 -0.4392652154897718 -0.6463781319885843 -0.026971672704697965</Array>
			</VectorInstance>
			<VectorInstance id="1424">
				<Array type="real">-0.9110872880577333 -0.3437317542728508 -0.3369384151167845 -0.21224842888183326 0.040973642894145026 -0.010521344332849897 -0.35505154313282533 1.1554353144882366 -0.05808140869907918 -0.4392652154897718 -0.6463781319885843 -0.026971672704697965</Array>
			</VectorInstance>
			<VectorInstance id="1435">
				<Array type="real">-1.5241672396158055 -0.32715003568720824 -0.3885600265131222 -0.21224842888183326 0.16967733817636763 0.1171098527644982 -0.35505154313282533 1.1554353144882366 -0.05808140869907918 -0.4392652154897718 -0.6463781319885843 -0.026971672704697965</Array>
			</VectorInstance>
			<VectorInstance id="1438">
				<Array type="real">-1.4777998483214976 -0.3859355542414558 -0.34309347176520444 -0.19578520308698946 -0.11428737114734455 -0.17303320117501497 -0.35505154313282533 1.1554353144882366 -0.05808140869907918 -0.4392652154897718 -0.6463781319885843 -0.026971672704697965</Array>
			</VectorInstance>
			<VectorInstance id="1439">
				<Array type="real">0.6138846922883959 -0.26382893891900555 -0.3858823873053657 -0.21224842888183326 -0.040501892107715334 -0.056524428535221515 -0.35505154313282533 1.1554353144882366 -0.05808140869907918 -0.4392652154897718 -0.6463781319885843 -0.026971672704697965</Array>
			</VectorInstance>
			<VectorInstance id="1440">
				<Array type="real">-0.6328829402918854 -0.17495384118525958 -0.366380713497003 -0.21224842888183326 -0.19118148073506228 -0.1642699531214666 -0.35505154313282533 -0.865474672152425 -0.05808140869907918 -0.4392652154897718 1.547082041472523 -0.026971672704697965</Array>
			</VectorInstance>
			<VectorInstance id="1443">
				<Array type="real">-0.7565293170767067 -0.40364493210471747 -0.3885600265131222 -0.21224842888183326 -0.06027904451655248 -0.1289691179260219 -0.35505154313282533 -0.865474672152425 -0.05808140869907918 -0.4392652154897718 1.547082041472523 -0.026971672704697965</Array>
			</VectorInstance>
			<VectorInstance id="1449">
				<Array type="real">8.047407303236947E-4 -0.4060127407914492 -0.38824672623632644 -0.21224842888183326 -0.18889779585969996 -0.26709884424601127 -0.35505154313282533 1.1554353144882366 -0.05808140869907918 -0.4392652154897718 -0.6463781319885843 -0.026971672704697965</Array>
			</VectorInstance>
			<VectorInstance id="1450">
				<Array type="real">-1.5190153072497714 -0.407719843685589 -0.3885600265131222 -0.21224842888183326 -0.16083602871179115 -0.2433536520064597 -0.35505154313282533 1.1554353144882366 -0.05808140869907918 -0.4392652154897718 -0.6463781319885843 -0.026971672704697965</Array>
			</VectorInstance>
			<VectorInstance id="1466">
				<Array type="real">0.4490228565753009 -0.3235186240504347 -0.3740568873840424 -0.21224842888183326 -0.19118148073506228 -0.2214502647311381 -0.35505154313282533 1.1554353144882366 -0.05808140869907918 -0.4392652154897718 -0.6463781319885843 -0.026971672704697965</Array>
			</VectorInstance>
			<VectorInstance id="1467">
				<Array type="real">1.9585390398233276 0.26622667258321364 -0.3754093425262832 -0.21224842888183326 -0.17117413661708095 0.024382189850174315 -0.35505154313282533 -0.865474672152425 -0.05808140869907918 -0.4392652154897718 1.547082041472523 -0.026971672704697965</Array>
			</VectorInstance>
			<VectorInstance id="1469">
				<Array type="real">0.8611774458580386 -0.4066155782292347 -0.1137075284221996 0.11849869100933716 0.6362867876560925 0.5261081010596942 -0.35505154313282533 1.1554353144882366 -0.05808140869907918 -0.4392652154897718 -0.6463781319885843 -0.026971672704697965</Array>
			</VectorInstance>
			<VectorInstance id="1470">
				<Array type="real">-1.3902169980989159 -0.3191531980184844 -0.38838720399201526 -0.21224842888183326 -0.1653037245785521 -0.1953911685437963 -0.35505154313282533 1.1554353144882366 -0.05808140869907918 -0.4392652154897718 -0.6463781319885843 -0.026971672704697965</Array>
			</VectorInstance>
			<VectorInstance id="1495">
				<Array type="real">0.21203396773772673 -0.4247093607141373 -0.3885432199193265 -0.21224842888183326 -0.16496407746805847 -0.23569814569048603 -0.35505154313282533 1.1554353144882366 -0.05808140869907918 -0.4392652154897718 -0.6463781319885843 -0.026971672704697965</Array>
			</VectorInstance>
			<VectorInstance id="1509">
				<Array type="real">0.1296030498811792 -0.40003105633303676 -0.3772111996445108 -0.21224842888183326 -0.13429368388083962 -0.19730588460443305 -0.35505154313282533 1.1554353144882366 -0.05808140869907918 -0.4392652154897718 -0.6463781319885843 -0.026971672704697965</Array>
			</VectorInstance>
			<VectorInstance id="1511">
				<Array type="real">1.1239259965257837 -0.4283461091172844 -0.38693961718677977 -0.21224842888183326 -0.11511556401767907 -0.19013659644430114 -0.35505154313282533 -0.865474672152425 -0.05808140869907918 -0.4392652154897718 1.547082041472523 -0.026971672704697965</Array>
			</VectorInstance>
			<VectorInstance id="1515">
				<Array type="real">-1.3850650657328816 -0.3266427714287091 -0.3783825241004098 -0.21224842888183326 -0.19118148073506228 -0.22265270125182005 -0.35505154313282533 1.1554353144882366 -0.05808140869907918 -0.4392652154897718 -0.6463781319885843 -0.026971672704697965</Array>
			</VectorInstance>
			<VectorInstance id="1520">
				<Array type="real">-0.26194380993742156 -0.3926116318122439 -0.3660499724153249 -0.21224842888183326 -0.19118148073506228 -0.24804310616823072 -0.35505154313282533 1.1554353144882366 -0.05808140869907918 -0.4392652154897718 -0.6463781319885843 -0.026971672704697965</Array>
			</VectorInstance>
			<VectorInstance id="1530">
				<Array type="real">-0.2464880128393189 -0.35591781238917386 -0.3788664271595093 -0.21224842888183326 -0.13681570063967846 -0.1827033150761066 -0.35505154313282533 1.1554353144882366 -0.05808140869907918 -0.4392652154897718 -0.6463781319885843 -0.026971672704697965</Array>
			</VectorInstance>
			<VectorInstance id="1534">
				<Array type="real">-1.5138633748837371 -0.43753994059399914 0.5659372988751875 1.0266148686329386 -0.19118148073506228 -0.26709884424601127 -0.35505154313282533 -0.865474672152425 -0.05808140869907918 2.276528996007385 -0.6463781319885843 -0.026971672704697965</Array>
			</VectorInstance>
			<VectorInstance id="1545">
				<Array type="real">0.382047735816856 -0.39304443107829296 -0.3885600265131222 -0.21224842888183326 0.40860746457948005 0.31683934833545596 -0.35505154313282533 1.1554353144882366 -0.05808140869907918 -0.4392652154897718 -0.6463781319885843 -0.026971672704697965</Array>
			</VectorInstance>
			<VectorInstance id="1546">
				<Array type="real">-0.16405709498277135 -0.4093188865615218 -0.33656329828537485 -0.1695089122921671 0.07222769363508627 -0.006321021176729721 -0.35505154313282533 1.1554353144882366 -0.05808140869907918 -0.4392652154897718 -0.6463781319885843 -0.026971672704697965</Array>
			</VectorInstance>
			<VectorInstance id="1553">
				<Array type="real">-1.5190153072497714 -0.3065491674000654 -0.35206357579541037 -0.21224842888183326 2.460199334493066 2.2828932396889487 -0.35505154313282533 1.1554353144882366 -0.05808140869907918 -0.4392652154897718 -0.6463781319885843 -0.026971672704697965</Array>
			</VectorInstance>
			<VectorInstance id="1569">
				<Array type="real">0.24809749429996628 -0.39977966369120227 -0.3809504447901791 -0.21224842888183326 -0.18757105612705466 -0.24740066397857846 -0.35505154313282533 1.1554353144882366 -0.05808140869907918 -0.4392652154897718 -0.6463781319885843 -0.026971672704697965</Array>
			</VectorInstance>
			<VectorInstance id="1584">
				<Array type="real">-0.9110872880577333 -0.38317763499060237 -0.38178062710257915 -0.21224842888183326 -0.19118148073506228 -0.26709884424601127 -0.35505154313282533 1.1554353144882366 -0.05808140869907918 -0.4392652154897718 -0.6463781319885843 -0.026971672704697965</Array>
			</VectorInstance>
			<VectorInstance id="1586">
				<Array type="real">0.11414725278307655 -0.1966421394124556 -0.3885600265131222 -0.21224842888183326 -0.07470393692653494 -0.06288630983290079 -0.35505154313282533 -0.865474672152425 -0.05808140869907918 -0.4392652154897718 1.547082041472523 -0.026971672704697965</Array>
			</VectorInstance>
			<VectorInstance id="1606">
				<Array type="real">0.335680344522548 -0.21249286758956432 -0.3885600265131222 -0.21224842888183326 0.5345505982883966 0.50497935839994 -0.35505154313282533 1.1554353144882366 -0.05808140869907918 -0.4392652154897718 -0.6463781319885843 -0.026971672704697965</Array>
			</VectorInstance>
			<VectorInstance id="1615">
				<Array type="real">-1.3541534715366763 -0.40808943783045815 -0.2300435697821698 -0.0318005272670452 0.12214501706593221 0.04117827737503193 -0.35505154313282533 1.1554353144882366 -0.05808140869907918 -0.4392652154897718 -0.6463781319885843 -0.026971672704697965</Array>
			</VectorInstance>
			<VectorInstance id="1620">
				<Array type="real">-1.4932556454196002 -0.4006354301949155 -0.3720511948225716 -0.21224842888183326 -0.19118148073506228 -0.25113134338680976 -0.35505154313282533 1.1554353144882366 -0.05808140869907918 -0.4392652154897718 -0.6463781319885843 -0.026971672704697965</Array>
			</VectorInstance>
			<VectorInstance id="1627">
				<Array type="real">-0.8750237614954938 -0.16710278464640374 -0.37545690835778056 -0.21224842888183326 -0.19118148073506228 -0.16124820159530356 -0.35505154313282533 -0.865474672152425 -0.05808140869907918 -0.4392652154897718 1.547082041472523 -0.026971672704697965</Array>
			</VectorInstance>
			<VectorInstance id="1642">
				<Array type="real">0.005956673096357916 -0.34683824091764315 -0.388557806774319 -0.21224842888183326 -0.1896923811220008 -0.2290227778127357 -0.35505154313282533 1.1554353144882366 -0.05808140869907918 -0.4392652154897718 -0.6463781319885843 -0.026971672704697965</Array>
			</VectorInstance>
			<VectorInstance id="1684">
				<Array type="real">-0.6380348726579197 -0.20023634026924572 -0.291939552992592 -0.21224842888183326 -0.057509309166396655 -0.048070951820022065 -0.35505154313282533 -0.865474672152425 -0.05808140869907918 -0.4392652154897718 1.547082041472523 -0.026971672704697965</Array>
			</VectorInstance>
			<VectorInstance id="1695">
				<Array type="real">0.4644786536734035 -0.40151720189794604 -0.3834276732945601 -0.21224842888183326 -0.19118148073506228 -0.2514707238225731 -0.35505154313282533 1.1554353144882366 -0.05808140869907918 -0.4392652154897718 -0.6463781319885843 -0.026971672704697965</Array>
			</VectorInstance>
			<VectorInstance id="1699">
				<Array type="real">-0.2825515394015584 -0.3643536873143467 -0.3885600265131222 -0.21224842888183326 -0.13833104177931382 -0.18737772856863352 -0.35505154313282533 1.1554353144882366 -0.05808140869907918 -0.4392652154897718 -0.6463781319885843 -0.026971672704697965</Array>
			</VectorInstance>
			<VectorInstance id="1703">
				<Array type="real">-1.3902169980989159 -0.390893567645156 -0.3850157378554844 -0.21224842888183326 -0.12410252719354462 -0.184188122505046 -0.35505154313282533 1.1554353144882366 -0.05808140869907918 -0.4392652154897718 -0.6463781319885843 -0.026971672704697965</Array>
			</VectorInstance>
			<VectorInstance id="1730">
				<Array type="real">0.23779362956789785 -0.3994117742712989 -0.38710990286354025 -0.21224842888183326 -0.19118148073506228 -0.2506603769460018 -0.35505154313282533 1.1554353144882366 -0.05808140869907918 -0.4392652154897718 -0.6463781319885843 -0.026971672704697965</Array>
			</VectorInstance>
			<VectorInstance id="1735">
				<Array type="real">0.335680344522548 -0.18556929384402646 -0.3802648626055309 -0.21224842888183326 -0.09901986201043816 -0.08153208206132156 -0.35505154313282533 1.1554353144882366 -0.05808140869907918 -0.4392652154897718 -0.6463781319885843 -0.026971672704697965</Array>
			</VectorInstance>
			<VectorInstance id="1739">
				<Array type="real">-0.3752863219901744 -0.3857995834237311 -0.38190905484762194 -0.21224842888183326 -0.19118148073506228 -0.24542125298039408 -0.35505154313282533 1.1554353144882366 -0.05808140869907918 -0.4392652154897718 -0.6463781319885843 -0.026971672704697965</Array>
			</VectorInstance>
			<VectorInstance id="1740">
				<Array type="real">-1.5035595101516688 -0.3003899798118661 -0.375877390308217 -0.21224842888183326 -0.19118148073506228 -0.2125484034746196 -0.35505154313282533 1.1554353144882366 -0.05808140869907918 -0.4392652154897718 -0.6463781319885843 -0.026971672704697965</Array>
			</VectorInstance>
			<VectorInstance id="1742">
				<Array type="real">-1.4571921188573607 -0.2628372450300508 -0.38850389883195535 -0.21224842888183326 -0.16712302914348792 -0.17542994999825978 -0.35505154313282533 -0.865474672152425 -0.05808140869907918 -0.4392652154897718 1.547082041472523 -0.026971672704697965</Array>
			</VectorInstance>
			<VectorInstance id="1743">
				<Array type="real">-0.5092365635070641 -0.4377842591701321 -0.26194993044461085 -0.050753927159484194 -0.19118148073506228 -0.2654293592137841 -0.35505154313282533 1.1554353144882366 -0.05808140869907918 -0.4392652154897718 -0.6463781319885843 -0.026971672704697965</Array>
			</VectorInstance>
			<VectorInstance id="1753">
				<Array type="real">-0.50408463114103 -0.3848624841661615 -0.372091784332116 -0.21224842888183326 -0.14968037670373352 -0.20596322737327727 -0.35505154313282533 1.1554353144882366 -0.05808140869907918 -0.4392652154897718 -0.6463781319885843 -0.026971672704697965</Array>
			</VectorInstance>
			<VectorInstance id="1755">
				<Array type="real">-1.4984075777856345 -0.2911489480840314 -0.3568806817091407 -0.21224842888183326 -0.18192733352647905 -0.20027352900508796 -0.35505154313282533 1.1554353144882366 -0.05808140869907918 -0.4392652154897718 -0.6463781319885843 -0.026971672704697965</Array>
			</VectorInstance>
			<VectorInstance id="1759">
				<Array type="real">0.07808372622083701 -0.3994698489304006 -0.3885600265131222 -0.21224842888183326 -0.11626008805502447 -0.18010080287667277 -0.35505154313282533 1.1554353144882366 -0.05808140869907918 -0.4392652154897718 -0.6463781319885843 -0.026971672704697965</Array>
			</VectorInstance>
			<VectorInstance id="1761">
				<Array type="real">-0.03525878583191585 -0.3226717992092007 -0.3574503871861506 -0.21224842888183326 0.306589103942564 0.24781526193844605 -0.35505154313282533 1.1554353144882366 -0.05808140869907918 -0.4392652154897718 -0.6463781319885843 -0.026971672704697965</Array>
			</VectorInstance>
			<VectorInstance id="1762">
				<Array type="real">0.335680344522548 -0.3080169627408217 -0.376064869447536 -0.21224842888183326 -0.06200123924153774 -0.09378582269801976 -0.35505154313282533 1.1554353144882366 -0.05808140869907918 -0.4392652154897718 -0.6463781319885843 -0.026971672704697965</Array>
			</VectorInstance>
			<VectorInstance id="1765">
				<Array type="real">-1.4984075777856345 -0.30983786959907195 -0.37597315618229826 -0.21224842888183326 0.8553912976696697 0.7697702882038918 -0.35505154313282533 1.1554353144882366 -0.05808140869907918 -0.4392652154897718 -0.6463781319885843 -0.026971672704697965</Array>
			</VectorInstance>
			<VectorInstance id="1772">
				<Array type="real">-0.4989326987749957 -0.43074042790595063 -0.3823159424834164 -0.21224842888183326 -0.163711275803906 -0.23683917206551422 -0.35505154313282533 1.1554353144882366 -0.05808140869907918 -0.4392652154897718 -0.6463781319885843 -0.026971672704697965</Array>
			</VectorInstance>
			<VectorInstance id="1775">
				<Array type="real">1.0878624699635442 -0.3699145924464363 -0.28503394557580936 -0.13239624878631553 -0.19118148073506228 -0.23930736302288752 -0.35505154313282533 1.1554353144882366 -0.05808140869907918 -0.4392652154897718 -0.6463781319885843 -0.026971672704697965</Array>
			</VectorInstance>
			<VectorInstance id="1782">
				<Array type="real">-0.2773996070355242 -0.4361527776583076 -0.32274794205341384 -0.1311272024369704 0.11786553001464722 0.026345507039728752 -0.35505154313282533 1.1554353144882366 -0.05808140869907918 -0.4392652154897718 -0.6463781319885843 -0.026971672704697965</Array>
			</VectorInstance>
			<VectorInstance id="1791">
				<Array type="real">0.26355329139806893 -0.3073367123307888 -0.376375880222309 -0.21224842888183326 -0.19118148073506228 -0.2152220945233355 -0.35505154313282533 -0.865474672152425 -0.05808140869907918 -0.4392652154897718 1.547082041472523 -0.026971672704697965</Array>
			</VectorInstance>
			<VectorInstance id="1792">
				<Array type="real">0.2532494266660005 -0.29194723169622655 -0.3883735684536527 -0.21224842888183326 2.0147516389335176 1.868866039780731 -0.35505154313282533 1.1554353144882366 -0.05808140869907918 -0.4392652154897718 -0.6463781319885843 -0.026971672704697965</Array>
			</VectorInstance>
			<VectorInstance id="1801">
				<Array type="real">0.07808372622083701 -0.28218246936969865 -0.3865647984345808 -0.21224842888183326 -0.19118148073506228 -0.20554061131391416 -0.35505154313282533 1.1554353144882366 -0.05808140869907918 -0.4392652154897718 -0.6463781319885843 -0.026971672704697965</Array>
			</VectorInstance>
			<VectorInstance id="1806">
				<Array type="real">-0.02495492109984741 -0.25588317242146696 -0.3338590444093679 -0.21224842888183326 0.15645458759899794 0.13208249212969786 -0.35505154313282533 1.1554353144882366 -0.05808140869907918 -0.4392652154897718 -0.6463781319885843 -0.026971672704697965</Array>
			</VectorInstance>
			<VectorInstance id="1815">
				<Array type="real">-0.02495492109984741 -0.28386795917438495 -0.3885600265131222 -0.21224842888183326 -0.08541260464250086 -0.10654661233686345 -0.35505154313282533 1.1554353144882366 -0.05808140869907918 -0.4392652154897718 -0.6463781319885843 -0.026971672704697965</Array>
			</VectorInstance>
			<VectorInstance id="1816">
				<Array type="real">-1.3953689304649501 -0.40695191937915215 -0.3885600265131222 -0.21224842888183326 -0.17197530499584454 -0.2354687138424259 -0.35505154313282533 1.1554353144882366 -0.05808140869907918 -0.4392652154897718 -0.6463781319885843 -0.026971672704697965</Array>
			</VectorInstance>
			<VectorInstance id="1828">
				<Array type="real">0.36659193871875334 -0.3952445469473812 -0.38845601589491474 -0.21224842888183326 -0.18289831658836483 -0.241253073560726 -0.35505154313282533 1.1554353144882366 -0.05808140869907918 -0.4392652154897718 -0.6463781319885843 -0.026971672704697965</Array>
			</VectorInstance>
			<VectorInstance id="1831">
				<Array type="real">-0.50408463114103 -0.43162354058689995 -0.37359010802428194 -0.20074520341797666 -0.15199986503797125 -0.22614598549016718 -0.35505154313282533 1.1554353144882366 -0.05808140869907918 -0.4392652154897718 -0.6463781319885843 -0.026971672704697965</Array>
			</VectorInstance>
			<VectorInstance id="1861">
				<Array type="real">-1.3644573362687447 -0.3480061892524926 -0.3885600265131222 -0.21224842888183326 -0.07814813118976396 -0.04481265766538237 -0.35505154313282533 1.1554353144882366 -0.05808140869907918 -0.4392652154897718 -0.6463781319885843 -0.026971672704697965</Array>
			</VectorInstance>
			<VectorInstance id="1869">
				<Array type="real">-0.1279935684205318 -0.380542521086003 -0.239248769520079 -0.06472385032101963 -0.0629349460718624 -0.12257942455448329 -0.35505154313282533 1.1554353144882366 -0.05808140869907918 -0.4392652154897718 -0.6463781319885843 -0.026971672704697965</Array>
			</VectorInstance>
			<VectorInstance id="1877">
				<Array type="real">0.3459842092546165 -0.4103436868607974 -0.2440090501204472 -0.04826383973636129 0.026956389121627195 -0.049364626987810974 -0.35505154313282533 1.1554353144882366 -0.05808140869907918 -0.4392652154897718 -0.6463781319885843 -0.026971672704697965</Array>
			</VectorInstance>
			<VectorInstance id="1891">
				<Array type="real">-1.3541534715366763 -0.33353544679322633 -0.3885600265131222 -0.21224842888183326 -0.0411401616244925 -0.04053281203782233 -0.35505154313282533 1.1554353144882366 -0.05808140869907918 -0.4392652154897718 -0.6463781319885843 -0.026971672704697965</Array>
			</VectorInstance>
			<VectorInstance id="1895">
				<Array type="real">0.26355329139806893 -0.3578505958950925 -0.37123877042059716 -0.21224842888183326 -0.19118148073506228 -0.23466411535166876 -0.35505154313282533 1.1554353144882366 -0.05808140869907918 -0.4392652154897718 -0.6463781319885843 -0.026971672704697965</Array>
			</VectorInstance>
			<VectorInstance id="1906">
				<Array type="real">-0.25679187757138733 -0.3801067086914318 -0.34914285616236995 -0.2080901963107876 -0.19118148073506228 -0.24323015260741326 -0.35505154313282533 1.1554353144882366 -0.05808140869907918 -0.4392652154897718 -0.6463781319885843 -0.026971672704697965</Array>
			</VectorInstance>
			<VectorInstance id="1914">
				<Array type="real">0.45932672130736935 -0.40320581884142287 -0.3709016872280527 -0.21224842888183326 -0.19118148073506228 -0.25212064664516426 -0.35505154313282533 1.1554353144882366 -0.05808140869907918 -0.4392652154897718 -0.6463781319885843 -0.026971672704697965</Array>
			</VectorInstance>
			<VectorInstance id="1922">
				<Array type="real">8.047407303236947E-4 -0.4231100409561241 -0.3885600265131222 -0.21224842888183326 -0.1386367751934746 -0.21028017317900202 -0.35505154313282533 1.1554353144882366 -0.05808140869907918 -0.4392652154897718 -0.6463781319885843 -0.026971672704697965</Array>
			</VectorInstance>
			<VectorInstance id="1942">
				<Array type="real">-0.7771370465408436 -0.07308000385481392 -0.38218842483128296 -0.21224842888183326 -0.19118148073506228 -0.12506027199054673 -0.35505154313282533 -0.865474672152425 -0.05808140869907918 -0.4392652154897718 1.547082041472523 -0.026971672704697965</Array>
			</VectorInstance>
			<VectorInstance id="1947">
				<Array type="real">1.7988291364762667 -0.2700445127285219 -0.38636787589218186 -0.21224842888183326 0.9420561716280867 0.8667313687616224 -0.35505154313282533 1.1554353144882366 -0.05808140869907918 -0.4392652154897718 -0.6463781319885843 -0.026971672704697965</Array>
			</VectorInstance>
			<VectorInstance id="1951">
				<Array type="real">-0.4783249693108588 -0.35144851757364565 -0.2945816763794971 -0.15886184075592033 0.054397324913685506 -8.452292089089649E-4 -0.35505154313282533 -0.865474672152425 -0.05808140869907918 -0.4392652154897718 1.547082041472523 -0.026971672704697965</Array>
			</VectorInstance>
			<VectorInstance id="1962">
				<Array type="real">-0.2773996070355242 -0.4334736612191641 -0.38646522729397975 -0.21224842888183326 -0.19118148073506228 -0.26377027602255393 -0.35505154313282533 1.1554353144882366 -0.05808140869907918 -0.4392652154897718 -0.6463781319885843 -0.026971672704697965</Array>
			</VectorInstance>
			<VectorInstance id="1976">
				<Array type="real">0.21718590010376096 -0.29001479022111315 -0.38347904439257724 -0.21224842888183326 -0.19118148073506228 -0.2085551517606716 -0.35505154313282533 1.1554353144882366 -0.05808140869907918 -0.4392652154897718 -0.6463781319885843 -0.026971672704697965</Array>
			</VectorInstance>
			<VectorInstance id="1980">
				<Array type="real">1.201204982016297 -0.37223760052674504 -0.3885600265131222 -0.21224842888183326 -0.0471552669253021 -0.10451726915859326 -0.35505154313282533 1.1554353144882366 -0.05808140869907918 -0.4392652154897718 -0.6463781319885843 -0.026971672704697965</Array>
			</VectorInstance>
			<VectorInstance id="1986">
				<Array type="real">-0.8492640996653227 -0.4302822532115907 -0.3885600265131222 -0.21224842888183326 0.12607900805857258 0.008615778016356145 -0.35505154313282533 -0.865474672152425 -0.05808140869907918 -0.4392652154897718 1.547082041472523 -0.026971672704697965</Array>
			</VectorInstance>
			<VectorInstance id="2003">
				<Array type="real">-1.0965568532349652 -0.3762343227797319 -0.3474070204182606 -0.208774800821006 2.3764529104375662 2.177176682159765 -0.35505154313282533 1.1554353144882366 -0.05808140869907918 -0.4392652154897718 -0.6463781319885843 -0.026971672704697965</Array>
			</VectorInstance>
			<VectorInstance id="2006">
				<Array type="real">-1.5087114425177028 -0.19807783271906512 -0.38207553525786264 -0.21224842888183326 0.3599662299218643 0.3460550835623974 -0.35505154313282533 1.1554353144882366 -0.05808140869907918 -0.4392652154897718 -0.6463781319885843 -0.026971672704697965</Array>
			</VectorInstance>
			<VectorInstance id="2010">
				<Array type="real">-0.5143884958730983 -0.2949079697855133 -0.3822632617395054 -0.21224842888183326 -0.19118148073506228 -0.21043846170033875 -0.35505154313282533 1.1554353144882366 -0.05808140869907918 -0.4392652154897718 -0.6463781319885843 -0.026971672704697965</Array>
			</VectorInstance>
			<VectorInstance id="2013">
				<Array type="real">0.8354177840278674 -0.3709595888504009 -0.3824253026721397 -0.21224842888183326 0.03896400020382617 -0.022894162854823933 -0.35505154313282533 1.1554353144882366 -0.05808140869907918 -0.4392652154897718 -0.6463781319885843 -0.026971672704697965</Array>
			</VectorInstance>
			<VectorInstance id="2017">
				<Array type="real">0.48508638313754043 -0.32273214864461014 -0.3885600265131222 -0.21224842888183326 0.04524782663294267 0.001587706653787019 -0.35505154313282533 1.1554353144882366 -0.05808140869907918 -0.4392652154897718 -0.6463781319885843 -0.026971672704697965</Array>
			</VectorInstance>
			<VectorInstance id="2018">
				<Array type="real">-0.030106853465881628 -0.25243911765910665 -0.3514765214741257 -0.21224842888183326 -0.06902030972748162 -0.07900728277239881 -0.35505154313282533 1.1554353144882366 -0.05808140869907918 -0.4392652154897718 -0.6463781319885843 -0.026971672704697965</Array>
			</VectorInstance>
			<VectorInstance id="2030">
				<Array type="real">0.45932672130736935 -0.3234929011622582 -0.3493315339606427 -0.21224842888183326 -0.17988490833571552 -0.2107980920840939 -0.35505154313282533 1.1554353144882366 -0.05808140869907918 -0.4392652154897718 -0.6463781319885843 -0.026971672704697965</Array>
			</VectorInstance>
			<VectorInstance id="2031">
				<Array type="real">-0.2464880128393189 -0.37267990064849454 -0.34646262937338 -0.21024780045830216 -0.14711157501377967 -0.19885432129416059 -0.35505154313282533 1.1554353144882366 -0.05808140869907918 -0.4392652154897718 -0.6463781319885843 -0.026971672704697965</Array>
			</VectorInstance>
			<VectorInstance id="2034">
				<Array type="real">0.005956673096357916 -0.16591687155068977 -0.3885600265131222 -0.21224842888183326 -0.022995335972405318 -0.002346995525259486 -0.35505154313282533 1.1554353144882366 -0.05808140869907918 -0.4392652154897718 -0.6463781319885843 -0.026971672704697965</Array>
			</VectorInstance>
			<VectorInstance id="2038">
				<Array type="real">0.005956673096357916 -0.36745291530538393 -0.3885600265131222 -0.21224842888183326 0.06582264071329018 0.003758481854534237 -0.35505154313282533 -0.865474672152425 -0.05808140869907918 -0.4392652154897718 1.547082041472523 -0.026971672704697965</Array>
			</VectorInstance>
			<VectorInstance id="2040">
				<Array type="real">0.2532494266660005 -0.4406174414853145 -0.37379495820526376 -0.19417436214730127 0.17780451484615206 0.08109443324191108 -0.35505154313282533 -0.865474672152425 -0.05808140869907918 -0.4392652154897718 1.547082041472523 -0.026971672704697965</Array>
			</VectorInstance>
			<VectorInstance id="2046">
				<Array type="real">0.49023831550357466 -0.19276851567498443 -0.35877652256829623 -0.21224842888183326 -0.19118148073506228 -0.17112654873519137 -0.35505154313282533 1.1554353144882366 -0.05808140869907918 -0.4392652154897718 -0.6463781319885843 -0.026971672704697965</Array>
			</VectorInstance>
			<VectorInstance id="2049">
				<Array type="real">-0.13314550078656603 -0.3175023510482122 -0.3885600265131222 -0.21224842888183326 -0.12415548712339018 -0.1559908608257961 -0.35505154313282533 1.1554353144882366 -0.05808140869907918 -0.4392652154897718 -0.6463781319885843 -0.026971672704697965</Array>
			</VectorInstance>
			<VectorInstance id="2070">
				<Array type="real">0.3305284121565138 -0.28222545666994797 -0.31829356048646035 -0.21224842888183326 -0.19118148073506228 -0.20555715646799513 -0.35505154313282533 1.1554353144882366 -0.05808140869907918 -0.4392652154897718 -0.6463781319885843 -0.026971672704697965</Array>
			</VectorInstance>
			<VectorInstance id="2073">
				<Array type="real">-0.3855901867222428 -0.32237874395785465 -0.37342711577501775 -0.21224842888183326 -0.17539849672208366 -0.20614271450387792 -0.35505154313282533 1.1554353144882366 -0.05808140869907918 -0.4392652154897718 -0.6463781319885843 -0.026971672704697965</Array>
			</VectorInstance>
			<VectorInstance id="2080">
				<Array type="real">-0.12284163605449759 -0.3384545392629169 -0.386673565635938 -0.21224842888183326 -0.18918059261370523 -0.22531387164339353 -0.35505154313282533 1.1554353144882366 -0.05808140869907918 -0.4392652154897718 -0.6463781319885843 -0.026971672704697965</Array>
			</VectorInstance>
			<VectorInstance id="2082">
				<Array type="real">-1.3593054039027106 -0.2085742532285561 -0.3885600265131222 -0.21224842888183326 0.08930731426189858 0.08703288355094058 -0.35505154313282533 1.1554353144882366 -0.05808140869907918 -0.4392652154897718 -0.6463781319885843 -0.026971672704697965</Array>
			</VectorInstance>
			<VectorInstance id="2083">
				<Array type="real">1.1239259965257837 -0.32309129727726915 -0.3885600265131222 -0.21224842888183326 -0.07317603064041657 -0.11011524619079041 -0.35505154313282533 -0.865474672152425 -0.05808140869907918 -0.4392652154897718 1.547082041472523 -0.026971672704697965</Array>
			</VectorInstance>
			<VectorInstance id="2110">
				<Array type="real">0.23264169720186362 -0.29035698389814213 -0.38850802120401845 -0.21224842888183326 -0.19118148073506228 -0.20868685687076577 -0.35505154313282533 1.1554353144882366 -0.05808140869907918 -0.4392652154897718 -0.6463781319885843 -0.026971672704697965</Array>
			</VectorInstance>
			<VectorInstance id="2111">
				<Array type="real">-1.5087114425177028 -0.2736936068150192 -0.3811022844374849 -0.21224842888183326 -0.14869715232791308 0.0864574578025217 -0.35505154313282533 1.1554353144882366 -0.05808140869907918 -0.4392652154897718 -0.6463781319885843 -0.026971672704697965</Array>
			</VectorInstance>
			<VectorInstance id="2117">
				<Array type="real">0.2790090884961716 -0.4116243153442545 -0.3885600265131222 -0.21224842888183326 -0.021143475146202424 -0.09517143233715268 -0.35505154313282533 1.1554353144882366 -0.05808140869907918 -0.4392652154897718 -0.6463781319885843 -0.026971672704697965</Array>
			</VectorInstance>
			<VectorInstance id="2119">
				<Array type="real">-0.1486012978846687 -0.43328830766803844 -0.3885600265131222 -0.21224842888183326 -0.15721638596631074 -0.2317011076896986 -0.35505154313282533 1.1554353144882366 -0.05808140869907918 -0.4392652154897718 -0.6463781319885843 -0.026971672704697965</Array>
			</VectorInstance>
			<VectorInstance id="2126">
				<Array type="real">-0.04556265056398429 -0.31274280237650426 -0.3885600265131222 -0.21224842888183326 -0.13451284975712113 -0.1639164451551726 -0.35505154313282533 1.1554353144882366 -0.05808140869907918 -0.4392652154897718 -0.6463781319885843 -0.026971672704697965</Array>
			</VectorInstance>
			<VectorInstance id="2139">
				<Array type="real">8.047407303236947E-4 -0.25248664365385065 -0.3885130948927115 -0.21224842888183326 -0.1112338320570399 -0.11879407801805456 -0.35505154313282533 1.1554353144882366 -0.05808140869907918 -0.4392652154897718 -0.6463781319885843 -0.026971672704697965</Array>
			</VectorInstance>
			<VectorInstance id="2143">
				<Array type="real">-0.009499124001744746 -0.40549152384772136 -0.3885600265131222 -0.21224842888183326 -0.15130053977763921 -0.21542935193655 -0.35505154313282533 1.1554353144882366 -0.05808140869907918 -0.4392652154897718 -0.6463781319885843 -0.026971672704697965</Array>
			</VectorInstance>
			<VectorInstance id="2154">
				<Array type="real">-0.6328829402918854 -0.35972232418774963 -0.3690329842612942 -0.21224842888183326 -0.19118148073506228 -0.23538451493061813 -0.35505154313282533 1.1554353144882366 -0.05808140869907918 -0.4392652154897718 -0.6463781319885843 -0.026971672704697965</Array>
			</VectorInstance>
			<VectorInstance id="2158">
